digraph Tree {
node [shape=box, fontname="helvetica"] ;
edge [fontname="helvetica"] ;
0 [label="X[0] <= 0.5\ngini = 0.499\nsamples = 11982\nvalue = [6248, 5734]"] ;
1 [label="X[161] <= 1.5\ngini = 0.463\nsamples = 7993\nvalue = [2910, 5083]"] ;
0 -> 1 [labeldistance=2.5, labelangle=45, headlabel="True"] ;
2 [label="X[144] <= 1364.535\ngini = 0.384\nsamples = 224\nvalue = [166, 58]"] ;
1 -> 2 ;
3 [label="X[137] <= 0.006\ngini = 0.313\nsamples = 185\nvalue = [149, 36]"] ;
2 -> 3 ;
4 [label="X[23] <= 31.937\ngini = 0.279\nsamples = 179\nvalue = [149, 30]"] ;
3 -> 4 ;
5 [label="X[83] <= 1.14\ngini = 0.254\nsamples = 174\nvalue = [148, 26]"] ;
4 -> 5 ;
6 [label="X[132] <= 0.018\ngini = 0.24\nsamples = 172\nvalue = [148, 24]"] ;
5 -> 6 ;
7 [label="X[132] <= 0.017\ngini = 0.48\nsamples = 15\nvalue = [9, 6]"] ;
6 -> 7 ;
8 [label="X[133] <= 0.956\ngini = 0.375\nsamples = 12\nvalue = [9, 3]"] ;
7 -> 8 ;
9 [label="X[93] <= 1.233\ngini = 0.444\nsamples = 3\nvalue = [1, 2]"] ;
8 -> 9 ;
10 [label="gini = 0.0\nsamples = 2\nvalue = [0, 2]"] ;
9 -> 10 ;
11 [label="gini = 0.0\nsamples = 1\nvalue = [1, 0]"] ;
9 -> 11 ;
12 [label="X[47] <= 78.3\ngini = 0.198\nsamples = 9\nvalue = [8, 1]"] ;
8 -> 12 ;
13 [label="gini = 0.0\nsamples = 8\nvalue = [8, 0]"] ;
12 -> 13 ;
14 [label="gini = 0.0\nsamples = 1\nvalue = [0, 1]"] ;
12 -> 14 ;
15 [label="gini = 0.0\nsamples = 3\nvalue = [0, 3]"] ;
7 -> 15 ;
16 [label="X[91] <= 1.162\ngini = 0.203\nsamples = 157\nvalue = [139, 18]"] ;
6 -> 16 ;
17 [label="X[12] <= 11157.637\ngini = 0.194\nsamples = 156\nvalue = [139, 17]"] ;
16 -> 17 ;
18 [label="X[53] <= 0.039\ngini = 0.185\nsamples = 155\nvalue = [139, 16]"] ;
17 -> 18 ;
19 [label="X[2] <= 0.5\ngini = 0.49\nsamples = 7\nvalue = [4, 3]"] ;
18 -> 19 ;
20 [label="X[45] <= 4229.82\ngini = 0.375\nsamples = 4\nvalue = [1, 3]"] ;
19 -> 20 ;
21 [label="gini = 0.0\nsamples = 3\nvalue = [0, 3]"] ;
20 -> 21 ;
22 [label="gini = 0.0\nsamples = 1\nvalue = [1, 0]"] ;
20 -> 22 ;
23 [label="gini = 0.0\nsamples = 3\nvalue = [3, 0]"] ;
19 -> 23 ;
24 [label="X[1] <= 0.5\ngini = 0.16\nsamples = 148\nvalue = [135, 13]"] ;
18 -> 24 ;
25 [label="X[146] <= 2.5\ngini = 0.274\nsamples = 61\nvalue = [51, 10]"] ;
24 -> 25 ;
26 [label="X[19] <= 29.726\ngini = 0.234\nsamples = 59\nvalue = [51, 8]"] ;
25 -> 26 ;
27 [label="X[15] <= 54.27\ngini = 0.05\nsamples = 39\nvalue = [38, 1]"] ;
26 -> 27 ;
28 [label="gini = 0.0\nsamples = 35\nvalue = [35, 0]"] ;
27 -> 28 ;
29 [label="X[132] <= 0.447\ngini = 0.375\nsamples = 4\nvalue = [3, 1]"] ;
27 -> 29 ;
30 [label="gini = 0.0\nsamples = 3\nvalue = [3, 0]"] ;
29 -> 30 ;
31 [label="gini = 0.0\nsamples = 1\nvalue = [0, 1]"] ;
29 -> 31 ;
32 [label="X[117] <= 2.38\ngini = 0.455\nsamples = 20\nvalue = [13, 7]"] ;
26 -> 32 ;
33 [label="X[113] <= 0.024\ngini = 0.26\nsamples = 13\nvalue = [11, 2]"] ;
32 -> 33 ;
34 [label="gini = 0.0\nsamples = 1\nvalue = [0, 1]"] ;
33 -> 34 ;
35 [label="X[36] <= 37.62\ngini = 0.153\nsamples = 12\nvalue = [11, 1]"] ;
33 -> 35 ;
36 [label="gini = 0.0\nsamples = 11\nvalue = [11, 0]"] ;
35 -> 36 ;
37 [label="gini = 0.0\nsamples = 1\nvalue = [0, 1]"] ;
35 -> 37 ;
38 [label="X[98] <= 3.199\ngini = 0.408\nsamples = 7\nvalue = [2, 5]"] ;
32 -> 38 ;
39 [label="gini = 0.0\nsamples = 2\nvalue = [2, 0]"] ;
38 -> 39 ;
40 [label="gini = 0.0\nsamples = 5\nvalue = [0, 5]"] ;
38 -> 40 ;
41 [label="gini = 0.0\nsamples = 2\nvalue = [0, 2]"] ;
25 -> 41 ;
42 [label="X[105] <= 17.321\ngini = 0.067\nsamples = 87\nvalue = [84, 3]"] ;
24 -> 42 ;
43 [label="X[21] <= 18.659\ngini = 0.045\nsamples = 86\nvalue = [84, 2]"] ;
42 -> 43 ;
44 [label="X[6] <= 1.733\ngini = 0.024\nsamples = 84\nvalue = [83, 1]"] ;
43 -> 44 ;
45 [label="gini = 0.0\nsamples = 82\nvalue = [82, 0]"] ;
44 -> 45 ;
46 [label="X[113] <= 0.042\ngini = 0.5\nsamples = 2\nvalue = [1, 1]"] ;
44 -> 46 ;
47 [label="gini = 0.0\nsamples = 1\nvalue = [1, 0]"] ;
46 -> 47 ;
48 [label="gini = 0.0\nsamples = 1\nvalue = [0, 1]"] ;
46 -> 48 ;
49 [label="X[28] <= 66.487\ngini = 0.5\nsamples = 2\nvalue = [1, 1]"] ;
43 -> 49 ;
50 [label="gini = 0.0\nsamples = 1\nvalue = [1, 0]"] ;
49 -> 50 ;
51 [label="gini = 0.0\nsamples = 1\nvalue = [0, 1]"] ;
49 -> 51 ;
52 [label="gini = 0.0\nsamples = 1\nvalue = [0, 1]"] ;
42 -> 52 ;
53 [label="gini = 0.0\nsamples = 1\nvalue = [0, 1]"] ;
17 -> 53 ;
54 [label="gini = 0.0\nsamples = 1\nvalue = [0, 1]"] ;
16 -> 54 ;
55 [label="gini = 0.0\nsamples = 2\nvalue = [0, 2]"] ;
5 -> 55 ;
56 [label="X[62] <= 0.457\ngini = 0.32\nsamples = 5\nvalue = [1, 4]"] ;
4 -> 56 ;
57 [label="gini = 0.0\nsamples = 4\nvalue = [0, 4]"] ;
56 -> 57 ;
58 [label="gini = 0.0\nsamples = 1\nvalue = [1, 0]"] ;
56 -> 58 ;
59 [label="gini = 0.0\nsamples = 6\nvalue = [0, 6]"] ;
3 -> 59 ;
60 [label="X[113] <= 0.064\ngini = 0.492\nsamples = 39\nvalue = [17, 22]"] ;
2 -> 60 ;
61 [label="X[92] <= 1.112\ngini = 0.5\nsamples = 33\nvalue = [17, 16]"] ;
60 -> 61 ;
62 [label="X[94] <= 46.955\ngini = 0.485\nsamples = 29\nvalue = [17, 12]"] ;
61 -> 62 ;
63 [label="X[80] <= 1.118\ngini = 0.466\nsamples = 27\nvalue = [17, 10]"] ;
62 -> 63 ;
64 [label="X[68] <= 515.34\ngini = 0.423\nsamples = 23\nvalue = [16, 7]"] ;
63 -> 64 ;
65 [label="X[2] <= 0.5\ngini = 0.5\nsamples = 10\nvalue = [5, 5]"] ;
64 -> 65 ;
66 [label="X[141] <= 0.26\ngini = 0.32\nsamples = 5\nvalue = [4, 1]"] ;
65 -> 66 ;
67 [label="gini = 0.0\nsamples = 4\nvalue = [4, 0]"] ;
66 -> 67 ;
68 [label="gini = 0.0\nsamples = 1\nvalue = [0, 1]"] ;
66 -> 68 ;
69 [label="X[111] <= 0.004\ngini = 0.32\nsamples = 5\nvalue = [1, 4]"] ;
65 -> 69 ;
70 [label="gini = 0.0\nsamples = 4\nvalue = [0, 4]"] ;
69 -> 70 ;
71 [label="gini = 0.0\nsamples = 1\nvalue = [1, 0]"] ;
69 -> 71 ;
72 [label="X[23] <= 0.258\ngini = 0.26\nsamples = 13\nvalue = [11, 2]"] ;
64 -> 72 ;
73 [label="X[132] <= 0.068\ngini = 0.48\nsamples = 5\nvalue = [3, 2]"] ;
72 -> 73 ;
74 [label="gini = 0.0\nsamples = 2\nvalue = [2, 0]"] ;
73 -> 74 ;
75 [label="X[158] <= 5.5\ngini = 0.444\nsamples = 3\nvalue = [1, 2]"] ;
73 -> 75 ;
76 [label="gini = 0.0\nsamples = 1\nvalue = [0, 1]"] ;
75 -> 76 ;
77 [label="X[2] <= 0.5\ngini = 0.5\nsamples = 2\nvalue = [1, 1]"] ;
75 -> 77 ;
78 [label="gini = 0.0\nsamples = 1\nvalue = [1, 0]"] ;
77 -> 78 ;
79 [label="gini = 0.0\nsamples = 1\nvalue = [0, 1]"] ;
77 -> 79 ;
80 [label="gini = 0.0\nsamples = 8\nvalue = [8, 0]"] ;
72 -> 80 ;
81 [label="X[144] <= 1484.83\ngini = 0.375\nsamples = 4\nvalue = [1, 3]"] ;
63 -> 81 ;
82 [label="gini = 0.0\nsamples = 3\nvalue = [0, 3]"] ;
81 -> 82 ;
83 [label="gini = 0.0\nsamples = 1\nvalue = [1, 0]"] ;
81 -> 83 ;
84 [label="gini = 0.0\nsamples = 2\nvalue = [0, 2]"] ;
62 -> 84 ;
85 [label="gini = 0.0\nsamples = 4\nvalue = [0, 4]"] ;
61 -> 85 ;
86 [label="gini = 0.0\nsamples = 6\nvalue = [0, 6]"] ;
60 -> 86 ;
87 [label="X[103] <= 50.577\ngini = 0.457\nsamples = 7769\nvalue = [2744, 5025]"] ;
1 -> 87 ;
88 [label="X[25] <= 171.596\ngini = 0.452\nsamples = 7501\nvalue = [2592, 4909]"] ;
87 -> 88 ;
89 [label="X[48] <= 1.31\ngini = 0.451\nsamples = 7457\nvalue = [2560, 4897]"] ;
88 -> 89 ;
90 [label="X[142] <= 2002.5\ngini = 0.444\nsamples = 6614\nvalue = [2200, 4414]"] ;
89 -> 90 ;
91 [label="X[116] <= 0.527\ngini = 0.403\nsamples = 1559\nvalue = [436, 1123]"] ;
90 -> 91 ;
92 [label="X[51] <= 0.374\ngini = 0.4\nsamples = 1552\nvalue = [429, 1123]"] ;
91 -> 92 ;
93 [label="X[143] <= 1108.0\ngini = 0.389\nsamples = 1469\nvalue = [389, 1080]"] ;
92 -> 93 ;
94 [label="X[53] <= 0.362\ngini = 0.298\nsamples = 11\nvalue = [9, 2]"] ;
93 -> 94 ;
95 [label="gini = 0.0\nsamples = 8\nvalue = [8, 0]"] ;
94 -> 95 ;
96 [label="X[64] <= 94.542\ngini = 0.444\nsamples = 3\nvalue = [1, 2]"] ;
94 -> 96 ;
97 [label="gini = 0.0\nsamples = 1\nvalue = [0, 1]"] ;
96 -> 97 ;
98 [label="X[142] <= 2001.5\ngini = 0.5\nsamples = 2\nvalue = [1, 1]"] ;
96 -> 98 ;
99 [label="gini = 0.0\nsamples = 1\nvalue = [1, 0]"] ;
98 -> 99 ;
100 [label="gini = 0.0\nsamples = 1\nvalue = [0, 1]"] ;
98 -> 100 ;
101 [label="X[53] <= 0.564\ngini = 0.385\nsamples = 1458\nvalue = [380, 1078]"] ;
93 -> 101 ;
102 [label="X[140] <= 0.074\ngini = 0.354\nsamples = 1017\nvalue = [234, 783]"] ;
101 -> 102 ;
103 [label="X[79] <= 1.359\ngini = 0.33\nsamples = 886\nvalue = [185, 701]"] ;
102 -> 103 ;
104 [label="X[76] <= 3036.835\ngini = 0.326\nsamples = 882\nvalue = [181, 701]"] ;
103 -> 104 ;
105 [label="X[34] <= 937.215\ngini = 0.317\nsamples = 864\nvalue = [171, 693]"] ;
104 -> 105 ;
106 [label="X[109] <= 1.007\ngini = 0.306\nsamples = 834\nvalue = [157, 677]"] ;
105 -> 106 ;
107 [label="X[27] <= 50.5\ngini = 0.299\nsamples = 825\nvalue = [151, 674]"] ;
106 -> 107 ;
108 [label="X[75] <= 360.624\ngini = 0.283\nsamples = 763\nvalue = [130, 633]"] ;
107 -> 108 ;
109 [label="X[140] <= 0.065\ngini = 0.312\nsamples = 604\nvalue = [117, 487]"] ;
108 -> 109 ;
110 [label="X[144] <= 1237.995\ngini = 0.402\nsamples = 219\nvalue = [61, 158]"] ;
109 -> 110 ;
111 [label="X[106] <= 3.45\ngini = 0.245\nsamples = 7\nvalue = [6, 1]"] ;
110 -> 111 ;
112 [label="gini = 0.0\nsamples = 6\nvalue = [6, 0]"] ;
111 -> 112 ;
113 [label="gini = 0.0\nsamples = 1\nvalue = [0, 1]"] ;
111 -> 113 ;
114 [label="X[19] <= 24.13\ngini = 0.384\nsamples = 212\nvalue = [55, 157]"] ;
110 -> 114 ;
115 [label="X[17] <= 1.485\ngini = 0.283\nsamples = 123\nvalue = [21, 102]"] ;
114 -> 115 ;
116 [label="X[29] <= 44.828\ngini = 0.151\nsamples = 73\nvalue = [6, 67]"] ;
115 -> 116 ;
117 [label="X[85] <= 1.158\ngini = 0.129\nsamples = 72\nvalue = [5, 67]"] ;
116 -> 117 ;
118 [label="X[66] <= 218.017\ngini = 0.106\nsamples = 71\nvalue = [4, 67]"] ;
117 -> 118 ;
119 [label="X[28] <= 10441.542\ngini = 0.058\nsamples = 67\nvalue = [2, 65]"] ;
118 -> 119 ;
120 [label="X[80] <= 1.185\ngini = 0.031\nsamples = 64\nvalue = [1, 63]"] ;
119 -> 120 ;
121 [label="gini = 0.0\nsamples = 59\nvalue = [0, 59]"] ;
120 -> 121 ;
122 [label="X[83] <= 0.567\ngini = 0.32\nsamples = 5\nvalue = [1, 4]"] ;
120 -> 122 ;
123 [label="gini = 0.0\nsamples = 3\nvalue = [0, 3]"] ;
122 -> 123 ;
124 [label="X[142] <= 2001.5\ngini = 0.5\nsamples = 2\nvalue = [1, 1]"] ;
122 -> 124 ;
125 [label="gini = 0.0\nsamples = 1\nvalue = [1, 0]"] ;
124 -> 125 ;
126 [label="gini = 0.0\nsamples = 1\nvalue = [0, 1]"] ;
124 -> 126 ;
127 [label="X[118] <= 0.011\ngini = 0.444\nsamples = 3\nvalue = [1, 2]"] ;
119 -> 127 ;
128 [label="gini = 0.0\nsamples = 2\nvalue = [0, 2]"] ;
127 -> 128 ;
129 [label="gini = 0.0\nsamples = 1\nvalue = [1, 0]"] ;
127 -> 129 ;
130 [label="X[50] <= 0.5\ngini = 0.5\nsamples = 4\nvalue = [2, 2]"] ;
118 -> 130 ;
131 [label="gini = 0.0\nsamples = 1\nvalue = [0, 1]"] ;
130 -> 131 ;
132 [label="X[105] <= 2.473\ngini = 0.444\nsamples = 3\nvalue = [2, 1]"] ;
130 -> 132 ;
133 [label="X[1] <= 0.5\ngini = 0.5\nsamples = 2\nvalue = [1, 1]"] ;
132 -> 133 ;
134 [label="gini = 0.0\nsamples = 1\nvalue = [1, 0]"] ;
133 -> 134 ;
135 [label="gini = 0.0\nsamples = 1\nvalue = [0, 1]"] ;
133 -> 135 ;
136 [label="gini = 0.0\nsamples = 1\nvalue = [1, 0]"] ;
132 -> 136 ;
137 [label="gini = 0.0\nsamples = 1\nvalue = [1, 0]"] ;
117 -> 137 ;
138 [label="gini = 0.0\nsamples = 1\nvalue = [1, 0]"] ;
116 -> 138 ;
139 [label="X[28] <= 9372.699\ngini = 0.42\nsamples = 50\nvalue = [15, 35]"] ;
115 -> 139 ;
140 [label="X[139] <= 1.117\ngini = 0.369\nsamples = 45\nvalue = [11, 34]"] ;
139 -> 140 ;
141 [label="X[103] <= 2.847\ngini = 0.375\nsamples = 4\nvalue = [3, 1]"] ;
140 -> 141 ;
142 [label="gini = 0.0\nsamples = 1\nvalue = [0, 1]"] ;
141 -> 142 ;
143 [label="gini = 0.0\nsamples = 3\nvalue = [3, 0]"] ;
141 -> 143 ;
144 [label="X[57] <= 41.119\ngini = 0.314\nsamples = 41\nvalue = [8, 33]"] ;
140 -> 144 ;
145 [label="X[13] <= 0.472\ngini = 0.18\nsamples = 30\nvalue = [3, 27]"] ;
144 -> 145 ;
146 [label="gini = 0.0\nsamples = 1\nvalue = [1, 0]"] ;
145 -> 146 ;
147 [label="X[70] <= 3112.652\ngini = 0.128\nsamples = 29\nvalue = [2, 27]"] ;
145 -> 147 ;
148 [label="X[12] <= 0.27\ngini = 0.071\nsamples = 27\nvalue = [1, 26]"] ;
147 -> 148 ;
149 [label="X[142] <= 2001.5\ngini = 0.5\nsamples = 2\nvalue = [1, 1]"] ;
148 -> 149 ;
150 [label="gini = 0.0\nsamples = 1\nvalue = [0, 1]"] ;
149 -> 150 ;
151 [label="gini = 0.0\nsamples = 1\nvalue = [1, 0]"] ;
149 -> 151 ;
152 [label="gini = 0.0\nsamples = 25\nvalue = [0, 25]"] ;
148 -> 152 ;
153 [label="X[2] <= 0.5\ngini = 0.5\nsamples = 2\nvalue = [1, 1]"] ;
147 -> 153 ;
154 [label="gini = 0.0\nsamples = 1\nvalue = [0, 1]"] ;
153 -> 154 ;
155 [label="gini = 0.0\nsamples = 1\nvalue = [1, 0]"] ;
153 -> 155 ;
156 [label="X[140] <= 0.062\ngini = 0.496\nsamples = 11\nvalue = [5, 6]"] ;
144 -> 156 ;
157 [label="gini = 0.0\nsamples = 2\nvalue = [2, 0]"] ;
156 -> 157 ;
158 [label="X[38] <= 2.7\ngini = 0.444\nsamples = 9\nvalue = [3, 6]"] ;
156 -> 158 ;
159 [label="gini = 0.0\nsamples = 2\nvalue = [0, 2]"] ;
158 -> 159 ;
160 [label="X[27] <= 41.696\ngini = 0.49\nsamples = 7\nvalue = [3, 4]"] ;
158 -> 160 ;
161 [label="X[2] <= 0.5\ngini = 0.5\nsamples = 6\nvalue = [3, 3]"] ;
160 -> 161 ;
162 [label="X[61] <= 0.18\ngini = 0.444\nsamples = 3\nvalue = [2, 1]"] ;
161 -> 162 ;
163 [label="gini = 0.0\nsamples = 1\nvalue = [0, 1]"] ;
162 -> 163 ;
164 [label="gini = 0.0\nsamples = 2\nvalue = [2, 0]"] ;
162 -> 164 ;
165 [label="X[117] <= 2.069\ngini = 0.444\nsamples = 3\nvalue = [1, 2]"] ;
161 -> 165 ;
166 [label="gini = 0.0\nsamples = 1\nvalue = [1, 0]"] ;
165 -> 166 ;
167 [label="gini = 0.0\nsamples = 2\nvalue = [0, 2]"] ;
165 -> 167 ;
168 [label="gini = 0.0\nsamples = 1\nvalue = [0, 1]"] ;
160 -> 168 ;
169 [label="X[17] <= 1.575\ngini = 0.32\nsamples = 5\nvalue = [4, 1]"] ;
139 -> 169 ;
170 [label="X[142] <= 2001.5\ngini = 0.5\nsamples = 2\nvalue = [1, 1]"] ;
169 -> 170 ;
171 [label="gini = 0.0\nsamples = 1\nvalue = [1, 0]"] ;
170 -> 171 ;
172 [label="gini = 0.0\nsamples = 1\nvalue = [0, 1]"] ;
170 -> 172 ;
173 [label="gini = 0.0\nsamples = 3\nvalue = [3, 0]"] ;
169 -> 173 ;
174 [label="X[88] <= 1.125\ngini = 0.472\nsamples = 89\nvalue = [34, 55]"] ;
114 -> 174 ;
175 [label="X[64] <= 167.018\ngini = 0.428\nsamples = 74\nvalue = [23, 51]"] ;
174 -> 175 ;
176 [label="X[91] <= 1.148\ngini = 0.344\nsamples = 59\nvalue = [13, 46]"] ;
175 -> 176 ;
177 [label="X[3] <= 3.33\ngini = 0.311\nsamples = 57\nvalue = [11, 46]"] ;
176 -> 177 ;
178 [label="X[3] <= 0.562\ngini = 0.274\nsamples = 55\nvalue = [9, 46]"] ;
177 -> 178 ;
179 [label="X[6] <= 0.495\ngini = 0.434\nsamples = 22\nvalue = [7, 15]"] ;
178 -> 179 ;
180 [label="X[38] <= 15.66\ngini = 0.375\nsamples = 20\nvalue = [5, 15]"] ;
179 -> 180 ;
181 [label="X[32] <= 8.485\ngini = 0.231\nsamples = 15\nvalue = [2, 13]"] ;
180 -> 181 ;
182 [label="gini = 0.0\nsamples = 9\nvalue = [0, 9]"] ;
181 -> 182 ;
183 [label="X[142] <= 2001.5\ngini = 0.444\nsamples = 6\nvalue = [2, 4]"] ;
181 -> 183 ;
184 [label="gini = 0.0\nsamples = 2\nvalue = [0, 2]"] ;
183 -> 184 ;
185 [label="X[144] <= 1559.485\ngini = 0.5\nsamples = 4\nvalue = [2, 2]"] ;
183 -> 185 ;
186 [label="X[2] <= 0.5\ngini = 0.5\nsamples = 2\nvalue = [1, 1]"] ;
185 -> 186 ;
187 [label="gini = 0.0\nsamples = 1\nvalue = [1, 0]"] ;
186 -> 187 ;
188 [label="gini = 0.0\nsamples = 1\nvalue = [0, 1]"] ;
186 -> 188 ;
189 [label="X[2] <= 0.5\ngini = 0.5\nsamples = 2\nvalue = [1, 1]"] ;
185 -> 189 ;
190 [label="gini = 0.0\nsamples = 1\nvalue = [0, 1]"] ;
189 -> 190 ;
191 [label="gini = 0.0\nsamples = 1\nvalue = [1, 0]"] ;
189 -> 191 ;
192 [label="X[132] <= 0.008\ngini = 0.48\nsamples = 5\nvalue = [3, 2]"] ;
180 -> 192 ;
193 [label="gini = 0.0\nsamples = 2\nvalue = [2, 0]"] ;
192 -> 193 ;
194 [label="X[132] <= 0.022\ngini = 0.444\nsamples = 3\nvalue = [1, 2]"] ;
192 -> 194 ;
195 [label="X[2] <= 0.5\ngini = 0.5\nsamples = 2\nvalue = [1, 1]"] ;
194 -> 195 ;
196 [label="gini = 0.0\nsamples = 1\nvalue = [0, 1]"] ;
195 -> 196 ;
197 [label="gini = 0.0\nsamples = 1\nvalue = [1, 0]"] ;
195 -> 197 ;
198 [label="gini = 0.0\nsamples = 1\nvalue = [0, 1]"] ;
194 -> 198 ;
199 [label="gini = 0.0\nsamples = 2\nvalue = [2, 0]"] ;
179 -> 199 ;
200 [label="X[99] <= 14.494\ngini = 0.114\nsamples = 33\nvalue = [2, 31]"] ;
178 -> 200 ;
201 [label="X[75] <= 235.523\ngini = 0.061\nsamples = 32\nvalue = [1, 31]"] ;
200 -> 201 ;
202 [label="gini = 0.0\nsamples = 31\nvalue = [0, 31]"] ;
201 -> 202 ;
203 [label="gini = 0.0\nsamples = 1\nvalue = [1, 0]"] ;
201 -> 203 ;
204 [label="gini = 0.0\nsamples = 1\nvalue = [1, 0]"] ;
200 -> 204 ;
205 [label="gini = 0.0\nsamples = 2\nvalue = [2, 0]"] ;
177 -> 205 ;
206 [label="gini = 0.0\nsamples = 2\nvalue = [2, 0]"] ;
176 -> 206 ;
207 [label="X[15] <= 35.055\ngini = 0.444\nsamples = 15\nvalue = [10, 5]"] ;
175 -> 207 ;
208 [label="X[4] <= 5.22\ngini = 0.494\nsamples = 9\nvalue = [4, 5]"] ;
207 -> 208 ;
209 [label="gini = 0.0\nsamples = 3\nvalue = [0, 3]"] ;
208 -> 209 ;
210 [label="X[140] <= 0.061\ngini = 0.444\nsamples = 6\nvalue = [4, 2]"] ;
208 -> 210 ;
211 [label="gini = 0.0\nsamples = 3\nvalue = [3, 0]"] ;
210 -> 211 ;
212 [label="X[46] <= 5.445\ngini = 0.444\nsamples = 3\nvalue = [1, 2]"] ;
210 -> 212 ;
213 [label="X[2] <= 0.5\ngini = 0.5\nsamples = 2\nvalue = [1, 1]"] ;
212 -> 213 ;
214 [label="gini = 0.0\nsamples = 1\nvalue = [0, 1]"] ;
213 -> 214 ;
215 [label="gini = 0.0\nsamples = 1\nvalue = [1, 0]"] ;
213 -> 215 ;
216 [label="gini = 0.0\nsamples = 1\nvalue = [0, 1]"] ;
212 -> 216 ;
217 [label="gini = 0.0\nsamples = 6\nvalue = [6, 0]"] ;
207 -> 217 ;
218 [label="X[90] <= 1.128\ngini = 0.391\nsamples = 15\nvalue = [11, 4]"] ;
174 -> 218 ;
219 [label="X[128] <= 0.001\ngini = 0.32\nsamples = 5\nvalue = [1, 4]"] ;
218 -> 219 ;
220 [label="gini = 0.0\nsamples = 4\nvalue = [0, 4]"] ;
219 -> 220 ;
221 [label="gini = 0.0\nsamples = 1\nvalue = [1, 0]"] ;
219 -> 221 ;
222 [label="gini = 0.0\nsamples = 10\nvalue = [10, 0]"] ;
218 -> 222 ;
223 [label="X[9] <= 1.35\ngini = 0.249\nsamples = 385\nvalue = [56, 329]"] ;
109 -> 223 ;
224 [label="X[143] <= 1339.0\ngini = 0.242\nsamples = 383\nvalue = [54, 329]"] ;
223 -> 224 ;
225 [label="X[79] <= 1.272\ngini = 0.33\nsamples = 139\nvalue = [29, 110]"] ;
224 -> 225 ;
226 [label="X[93] <= 5.446\ngini = 0.304\nsamples = 134\nvalue = [25, 109]"] ;
225 -> 226 ;
227 [label="X[138] <= 28.427\ngini = 0.288\nsamples = 132\nvalue = [23, 109]"] ;
226 -> 227 ;
228 [label="X[113] <= 0.011\ngini = 0.236\nsamples = 117\nvalue = [16, 101]"] ;
227 -> 228 ;
229 [label="X[87] <= 1.125\ngini = 0.36\nsamples = 51\nvalue = [12, 39]"] ;
228 -> 229 ;
230 [label="X[9] <= 0.833\ngini = 0.464\nsamples = 30\nvalue = [11, 19]"] ;
229 -> 230 ;
231 [label="X[20] <= 0.299\ngini = 0.393\nsamples = 26\nvalue = [7, 19]"] ;
230 -> 231 ;
232 [label="X[19] <= 32.499\ngini = 0.124\nsamples = 15\nvalue = [1, 14]"] ;
231 -> 232 ;
233 [label="gini = 0.0\nsamples = 13\nvalue = [0, 13]"] ;
232 -> 233 ;
234 [label="X[2] <= 0.5\ngini = 0.5\nsamples = 2\nvalue = [1, 1]"] ;
232 -> 234 ;
235 [label="gini = 0.0\nsamples = 1\nvalue = [0, 1]"] ;
234 -> 235 ;
236 [label="gini = 0.0\nsamples = 1\nvalue = [1, 0]"] ;
234 -> 236 ;
237 [label="X[73] <= 63.541\ngini = 0.496\nsamples = 11\nvalue = [6, 5]"] ;
231 -> 237 ;
238 [label="X[164] <= 5.5\ngini = 0.32\nsamples = 5\nvalue = [1, 4]"] ;
237 -> 238 ;
239 [label="gini = 0.0\nsamples = 4\nvalue = [0, 4]"] ;
238 -> 239 ;
240 [label="gini = 0.0\nsamples = 1\nvalue = [1, 0]"] ;
238 -> 240 ;
241 [label="X[65] <= 114.516\ngini = 0.278\nsamples = 6\nvalue = [5, 1]"] ;
237 -> 241 ;
242 [label="X[2] <= 0.5\ngini = 0.5\nsamples = 2\nvalue = [1, 1]"] ;
241 -> 242 ;
243 [label="gini = 0.0\nsamples = 1\nvalue = [1, 0]"] ;
242 -> 243 ;
244 [label="gini = 0.0\nsamples = 1\nvalue = [0, 1]"] ;
242 -> 244 ;
245 [label="gini = 0.0\nsamples = 4\nvalue = [4, 0]"] ;
241 -> 245 ;
246 [label="gini = 0.0\nsamples = 4\nvalue = [4, 0]"] ;
230 -> 246 ;
247 [label="X[122] <= 0.184\ngini = 0.091\nsamples = 21\nvalue = [1, 20]"] ;
229 -> 247 ;
248 [label="gini = 0.0\nsamples = 20\nvalue = [0, 20]"] ;
247 -> 248 ;
249 [label="gini = 0.0\nsamples = 1\nvalue = [1, 0]"] ;
247 -> 249 ;
250 [label="X[65] <= 10605.153\ngini = 0.114\nsamples = 66\nvalue = [4, 62]"] ;
228 -> 250 ;
251 [label="X[139] <= 1.143\ngini = 0.088\nsamples = 65\nvalue = [3, 62]"] ;
250 -> 251 ;
252 [label="X[105] <= 25.36\ngini = 0.061\nsamples = 63\nvalue = [2, 61]"] ;
251 -> 252 ;
253 [label="X[132] <= 0.0\ngini = 0.032\nsamples = 61\nvalue = [1, 60]"] ;
252 -> 253 ;
254 [label="X[90] <= 1.136\ngini = 0.278\nsamples = 6\nvalue = [1, 5]"] ;
253 -> 254 ;
255 [label="gini = 0.0\nsamples = 5\nvalue = [0, 5]"] ;
254 -> 255 ;
256 [label="gini = 0.0\nsamples = 1\nvalue = [1, 0]"] ;
254 -> 256 ;
257 [label="gini = 0.0\nsamples = 55\nvalue = [0, 55]"] ;
253 -> 257 ;
258 [label="X[60] <= 37.795\ngini = 0.5\nsamples = 2\nvalue = [1, 1]"] ;
252 -> 258 ;
259 [label="gini = 0.0\nsamples = 1\nvalue = [1, 0]"] ;
258 -> 259 ;
260 [label="gini = 0.0\nsamples = 1\nvalue = [0, 1]"] ;
258 -> 260 ;
261 [label="X[142] <= 2001.5\ngini = 0.5\nsamples = 2\nvalue = [1, 1]"] ;
251 -> 261 ;
262 [label="gini = 0.0\nsamples = 1\nvalue = [0, 1]"] ;
261 -> 262 ;
263 [label="gini = 0.0\nsamples = 1\nvalue = [1, 0]"] ;
261 -> 263 ;
264 [label="gini = 0.0\nsamples = 1\nvalue = [1, 0]"] ;
250 -> 264 ;
265 [label="X[104] <= 12.837\ngini = 0.498\nsamples = 15\nvalue = [7, 8]"] ;
227 -> 265 ;
266 [label="gini = 0.0\nsamples = 4\nvalue = [4, 0]"] ;
265 -> 266 ;
267 [label="X[15] <= 13.59\ngini = 0.397\nsamples = 11\nvalue = [3, 8]"] ;
265 -> 267 ;
268 [label="gini = 0.0\nsamples = 2\nvalue = [2, 0]"] ;
267 -> 268 ;
269 [label="X[31] <= 9.019\ngini = 0.198\nsamples = 9\nvalue = [1, 8]"] ;
267 -> 269 ;
270 [label="gini = 0.0\nsamples = 7\nvalue = [0, 7]"] ;
269 -> 270 ;
271 [label="X[142] <= 2001.5\ngini = 0.5\nsamples = 2\nvalue = [1, 1]"] ;
269 -> 271 ;
272 [label="gini = 0.0\nsamples = 1\nvalue = [0, 1]"] ;
271 -> 272 ;
273 [label="gini = 0.0\nsamples = 1\nvalue = [1, 0]"] ;
271 -> 273 ;
274 [label="gini = 0.0\nsamples = 2\nvalue = [2, 0]"] ;
226 -> 274 ;
275 [label="X[31] <= 0.135\ngini = 0.32\nsamples = 5\nvalue = [4, 1]"] ;
225 -> 275 ;
276 [label="gini = 0.0\nsamples = 4\nvalue = [4, 0]"] ;
275 -> 276 ;
277 [label="gini = 0.0\nsamples = 1\nvalue = [0, 1]"] ;
275 -> 277 ;
278 [label="X[27] <= 46.557\ngini = 0.184\nsamples = 244\nvalue = [25, 219]"] ;
224 -> 278 ;
279 [label="X[105] <= 31.022\ngini = 0.173\nsamples = 241\nvalue = [23, 218]"] ;
278 -> 279 ;
280 [label="X[140] <= 0.072\ngini = 0.167\nsamples = 240\nvalue = [22, 218]"] ;
279 -> 280 ;
281 [label="X[83] <= 1.165\ngini = 0.131\nsamples = 213\nvalue = [15, 198]"] ;
280 -> 281 ;
282 [label="X[93] <= 4.455\ngini = 0.123\nsamples = 212\nvalue = [14, 198]"] ;
281 -> 282 ;
283 [label="X[103] <= 49.042\ngini = 0.097\nsamples = 195\nvalue = [10, 185]"] ;
282 -> 283 ;
284 [label="X[89] <= 1.23\ngini = 0.089\nsamples = 193\nvalue = [9, 184]"] ;
283 -> 284 ;
285 [label="X[10] <= 1.035\ngini = 0.057\nsamples = 170\nvalue = [5, 165]"] ;
284 -> 285 ;
286 [label="X[105] <= 30.366\ngini = 0.027\nsamples = 148\nvalue = [2, 146]"] ;
285 -> 286 ;
287 [label="X[4] <= 1.058\ngini = 0.014\nsamples = 144\nvalue = [1, 143]"] ;
286 -> 287 ;
288 [label="X[44] <= 286.47\ngini = 0.165\nsamples = 11\nvalue = [1, 10]"] ;
287 -> 288 ;
289 [label="gini = 0.0\nsamples = 10\nvalue = [0, 10]"] ;
288 -> 289 ;
290 [label="gini = 0.0\nsamples = 1\nvalue = [1, 0]"] ;
288 -> 290 ;
291 [label="gini = 0.0\nsamples = 133\nvalue = [0, 133]"] ;
287 -> 291 ;
292 [label="X[1] <= 0.5\ngini = 0.375\nsamples = 4\nvalue = [1, 3]"] ;
286 -> 292 ;
293 [label="gini = 0.0\nsamples = 3\nvalue = [0, 3]"] ;
292 -> 293 ;
294 [label="gini = 0.0\nsamples = 1\nvalue = [1, 0]"] ;
292 -> 294 ;
295 [label="X[15] <= 19.193\ngini = 0.236\nsamples = 22\nvalue = [3, 19]"] ;
285 -> 295 ;
296 [label="gini = 0.0\nsamples = 12\nvalue = [0, 12]"] ;
295 -> 296 ;
297 [label="X[17] <= 2.565\ngini = 0.42\nsamples = 10\nvalue = [3, 7]"] ;
295 -> 297 ;
298 [label="X[2] <= 0.5\ngini = 0.5\nsamples = 6\nvalue = [3, 3]"] ;
297 -> 298 ;
299 [label="X[100] <= 18.079\ngini = 0.444\nsamples = 3\nvalue = [2, 1]"] ;
298 -> 299 ;
300 [label="gini = 0.0\nsamples = 2\nvalue = [2, 0]"] ;
299 -> 300 ;
301 [label="gini = 0.0\nsamples = 1\nvalue = [0, 1]"] ;
299 -> 301 ;
302 [label="X[132] <= 0.077\ngini = 0.444\nsamples = 3\nvalue = [1, 2]"] ;
298 -> 302 ;
303 [label="gini = 0.0\nsamples = 2\nvalue = [0, 2]"] ;
302 -> 303 ;
304 [label="gini = 0.0\nsamples = 1\nvalue = [1, 0]"] ;
302 -> 304 ;
305 [label="gini = 0.0\nsamples = 4\nvalue = [0, 4]"] ;
297 -> 305 ;
306 [label="X[89] <= 1.235\ngini = 0.287\nsamples = 23\nvalue = [4, 19]"] ;
284 -> 306 ;
307 [label="gini = 0.0\nsamples = 2\nvalue = [2, 0]"] ;
306 -> 307 ;
308 [label="X[19] <= 8.931\ngini = 0.172\nsamples = 21\nvalue = [2, 19]"] ;
306 -> 308 ;
309 [label="gini = 0.0\nsamples = 1\nvalue = [1, 0]"] ;
308 -> 309 ;
310 [label="X[25] <= 6.492\ngini = 0.095\nsamples = 20\nvalue = [1, 19]"] ;
308 -> 310 ;
311 [label="gini = 0.0\nsamples = 18\nvalue = [0, 18]"] ;
310 -> 311 ;
312 [label="X[142] <= 2001.5\ngini = 0.5\nsamples = 2\nvalue = [1, 1]"] ;
310 -> 312 ;
313 [label="gini = 0.0\nsamples = 1\nvalue = [0, 1]"] ;
312 -> 313 ;
314 [label="gini = 0.0\nsamples = 1\nvalue = [1, 0]"] ;
312 -> 314 ;
315 [label="X[132] <= 0.22\ngini = 0.5\nsamples = 2\nvalue = [1, 1]"] ;
283 -> 315 ;
316 [label="gini = 0.0\nsamples = 1\nvalue = [1, 0]"] ;
315 -> 316 ;
317 [label="gini = 0.0\nsamples = 1\nvalue = [0, 1]"] ;
315 -> 317 ;
318 [label="X[35] <= 15.525\ngini = 0.36\nsamples = 17\nvalue = [4, 13]"] ;
282 -> 318 ;
319 [label="X[134] <= 0.036\ngini = 0.231\nsamples = 15\nvalue = [2, 13]"] ;
318 -> 319 ;
320 [label="X[5] <= 2.947\ngini = 0.133\nsamples = 14\nvalue = [1, 13]"] ;
319 -> 320 ;
321 [label="gini = 0.0\nsamples = 11\nvalue = [0, 11]"] ;
320 -> 321 ;
322 [label="X[142] <= 2001.5\ngini = 0.444\nsamples = 3\nvalue = [1, 2]"] ;
320 -> 322 ;
323 [label="gini = 0.0\nsamples = 1\nvalue = [1, 0]"] ;
322 -> 323 ;
324 [label="gini = 0.0\nsamples = 2\nvalue = [0, 2]"] ;
322 -> 324 ;
325 [label="gini = 0.0\nsamples = 1\nvalue = [1, 0]"] ;
319 -> 325 ;
326 [label="gini = 0.0\nsamples = 2\nvalue = [2, 0]"] ;
318 -> 326 ;
327 [label="gini = 0.0\nsamples = 1\nvalue = [1, 0]"] ;
281 -> 327 ;
328 [label="X[65] <= 219.74\ngini = 0.384\nsamples = 27\nvalue = [7, 20]"] ;
280 -> 328 ;
329 [label="X[129] <= 0.001\ngini = 0.117\nsamples = 16\nvalue = [1, 15]"] ;
328 -> 329 ;
330 [label="gini = 0.0\nsamples = 15\nvalue = [0, 15]"] ;
329 -> 330 ;
331 [label="gini = 0.0\nsamples = 1\nvalue = [1, 0]"] ;
329 -> 331 ;
332 [label="X[140] <= 0.072\ngini = 0.496\nsamples = 11\nvalue = [6, 5]"] ;
328 -> 332 ;
333 [label="gini = 0.0\nsamples = 4\nvalue = [4, 0]"] ;
332 -> 333 ;
334 [label="X[144] <= 1517.705\ngini = 0.408\nsamples = 7\nvalue = [2, 5]"] ;
332 -> 334 ;
335 [label="gini = 0.0\nsamples = 3\nvalue = [0, 3]"] ;
334 -> 335 ;
336 [label="X[5] <= 0.585\ngini = 0.5\nsamples = 4\nvalue = [2, 2]"] ;
334 -> 336 ;
337 [label="X[2] <= 0.5\ngini = 0.5\nsamples = 2\nvalue = [1, 1]"] ;
336 -> 337 ;
338 [label="gini = 0.0\nsamples = 1\nvalue = [0, 1]"] ;
337 -> 338 ;
339 [label="gini = 0.0\nsamples = 1\nvalue = [1, 0]"] ;
337 -> 339 ;
340 [label="X[1] <= 0.5\ngini = 0.5\nsamples = 2\nvalue = [1, 1]"] ;
336 -> 340 ;
341 [label="gini = 0.0\nsamples = 1\nvalue = [0, 1]"] ;
340 -> 341 ;
342 [label="gini = 0.0\nsamples = 1\nvalue = [1, 0]"] ;
340 -> 342 ;
343 [label="gini = 0.0\nsamples = 1\nvalue = [1, 0]"] ;
279 -> 343 ;
344 [label="X[124] <= 0.007\ngini = 0.444\nsamples = 3\nvalue = [2, 1]"] ;
278 -> 344 ;
345 [label="gini = 0.0\nsamples = 1\nvalue = [0, 1]"] ;
344 -> 345 ;
346 [label="gini = 0.0\nsamples = 2\nvalue = [2, 0]"] ;
344 -> 346 ;
347 [label="gini = 0.0\nsamples = 2\nvalue = [2, 0]"] ;
223 -> 347 ;
348 [label="X[117] <= 3.933\ngini = 0.15\nsamples = 159\nvalue = [13, 146]"] ;
108 -> 348 ;
349 [label="X[68] <= 8365.985\ngini = 0.13\nsamples = 157\nvalue = [11, 146]"] ;
348 -> 349 ;
350 [label="X[126] <= 0.0\ngini = 0.11\nsamples = 154\nvalue = [9, 145]"] ;
349 -> 350 ;
351 [label="X[77] <= 104.842\ngini = 0.079\nsamples = 146\nvalue = [6, 140]"] ;
350 -> 351 ;
352 [label="X[25] <= 39.956\ngini = 0.019\nsamples = 107\nvalue = [1, 106]"] ;
351 -> 352 ;
353 [label="gini = 0.0\nsamples = 101\nvalue = [0, 101]"] ;
352 -> 353 ;
354 [label="X[87] <= 1.131\ngini = 0.278\nsamples = 6\nvalue = [1, 5]"] ;
352 -> 354 ;
355 [label="gini = 0.0\nsamples = 1\nvalue = [1, 0]"] ;
354 -> 355 ;
356 [label="gini = 0.0\nsamples = 5\nvalue = [0, 5]"] ;
354 -> 356 ;
357 [label="X[78] <= 1.025\ngini = 0.224\nsamples = 39\nvalue = [5, 34]"] ;
351 -> 357 ;
358 [label="X[135] <= 0.009\ngini = 0.415\nsamples = 17\nvalue = [5, 12]"] ;
357 -> 358 ;
359 [label="X[10] <= 1.035\ngini = 0.48\nsamples = 5\nvalue = [3, 2]"] ;
358 -> 359 ;
360 [label="X[105] <= 3.284\ngini = 0.5\nsamples = 4\nvalue = [2, 2]"] ;
359 -> 360 ;
361 [label="X[2] <= 0.5\ngini = 0.5\nsamples = 2\nvalue = [1, 1]"] ;
360 -> 361 ;
362 [label="gini = 0.0\nsamples = 1\nvalue = [0, 1]"] ;
361 -> 362 ;
363 [label="gini = 0.0\nsamples = 1\nvalue = [1, 0]"] ;
361 -> 363 ;
364 [label="X[1] <= 0.5\ngini = 0.5\nsamples = 2\nvalue = [1, 1]"] ;
360 -> 364 ;
365 [label="gini = 0.0\nsamples = 1\nvalue = [0, 1]"] ;
364 -> 365 ;
366 [label="gini = 0.0\nsamples = 1\nvalue = [1, 0]"] ;
364 -> 366 ;
367 [label="gini = 0.0\nsamples = 1\nvalue = [1, 0]"] ;
359 -> 367 ;
368 [label="X[13] <= 0.157\ngini = 0.278\nsamples = 12\nvalue = [2, 10]"] ;
358 -> 368 ;
369 [label="X[2] <= 0.5\ngini = 0.5\nsamples = 2\nvalue = [1, 1]"] ;
368 -> 369 ;
370 [label="gini = 0.0\nsamples = 1\nvalue = [1, 0]"] ;
369 -> 370 ;
371 [label="gini = 0.0\nsamples = 1\nvalue = [0, 1]"] ;
369 -> 371 ;
372 [label="X[124] <= 0.035\ngini = 0.18\nsamples = 10\nvalue = [1, 9]"] ;
368 -> 372 ;
373 [label="gini = 0.0\nsamples = 8\nvalue = [0, 8]"] ;
372 -> 373 ;
374 [label="X[1] <= 0.5\ngini = 0.5\nsamples = 2\nvalue = [1, 1]"] ;
372 -> 374 ;
375 [label="gini = 0.0\nsamples = 1\nvalue = [1, 0]"] ;
374 -> 375 ;
376 [label="gini = 0.0\nsamples = 1\nvalue = [0, 1]"] ;
374 -> 376 ;
377 [label="gini = 0.0\nsamples = 22\nvalue = [0, 22]"] ;
357 -> 377 ;
378 [label="X[79] <= 1.177\ngini = 0.469\nsamples = 8\nvalue = [3, 5]"] ;
350 -> 378 ;
379 [label="gini = 0.0\nsamples = 3\nvalue = [0, 3]"] ;
378 -> 379 ;
380 [label="X[120] <= 0.02\ngini = 0.48\nsamples = 5\nvalue = [3, 2]"] ;
378 -> 380 ;
381 [label="gini = 0.0\nsamples = 2\nvalue = [2, 0]"] ;
380 -> 381 ;
382 [label="X[60] <= 4.97\ngini = 0.444\nsamples = 3\nvalue = [1, 2]"] ;
380 -> 382 ;
383 [label="gini = 0.0\nsamples = 1\nvalue = [0, 1]"] ;
382 -> 383 ;
384 [label="X[2] <= 0.5\ngini = 0.5\nsamples = 2\nvalue = [1, 1]"] ;
382 -> 384 ;
385 [label="gini = 0.0\nsamples = 1\nvalue = [0, 1]"] ;
384 -> 385 ;
386 [label="gini = 0.0\nsamples = 1\nvalue = [1, 0]"] ;
384 -> 386 ;
387 [label="X[2] <= 0.5\ngini = 0.444\nsamples = 3\nvalue = [2, 1]"] ;
349 -> 387 ;
388 [label="gini = 0.0\nsamples = 2\nvalue = [2, 0]"] ;
387 -> 388 ;
389 [label="gini = 0.0\nsamples = 1\nvalue = [0, 1]"] ;
387 -> 389 ;
390 [label="gini = 0.0\nsamples = 2\nvalue = [2, 0]"] ;
348 -> 390 ;
391 [label="X[64] <= 863.717\ngini = 0.448\nsamples = 62\nvalue = [21, 41]"] ;
107 -> 391 ;
392 [label="X[138] <= 42.058\ngini = 0.424\nsamples = 59\nvalue = [18, 41]"] ;
391 -> 392 ;
393 [label="X[84] <= 1.1\ngini = 0.392\nsamples = 56\nvalue = [15, 41]"] ;
392 -> 393 ;
394 [label="X[149] <= 2.5\ngini = 0.35\nsamples = 53\nvalue = [12, 41]"] ;
393 -> 394 ;
395 [label="X[44] <= 1438.245\ngini = 0.137\nsamples = 27\nvalue = [2, 25]"] ;
394 -> 395 ;
396 [label="X[18] <= 9.098\ngini = 0.074\nsamples = 26\nvalue = [1, 25]"] ;
395 -> 396 ;
397 [label="gini = 0.0\nsamples = 24\nvalue = [0, 24]"] ;
396 -> 397 ;
398 [label="X[2] <= 0.5\ngini = 0.5\nsamples = 2\nvalue = [1, 1]"] ;
396 -> 398 ;
399 [label="gini = 0.0\nsamples = 1\nvalue = [0, 1]"] ;
398 -> 399 ;
400 [label="gini = 0.0\nsamples = 1\nvalue = [1, 0]"] ;
398 -> 400 ;
401 [label="gini = 0.0\nsamples = 1\nvalue = [1, 0]"] ;
395 -> 401 ;
402 [label="X[53] <= 0.218\ngini = 0.473\nsamples = 26\nvalue = [10, 16]"] ;
394 -> 402 ;
403 [label="X[60] <= 0.916\ngini = 0.397\nsamples = 22\nvalue = [6, 16]"] ;
402 -> 403 ;
404 [label="X[140] <= 0.054\ngini = 0.165\nsamples = 11\nvalue = [1, 10]"] ;
403 -> 404 ;
405 [label="X[1] <= 0.5\ngini = 0.5\nsamples = 2\nvalue = [1, 1]"] ;
404 -> 405 ;
406 [label="gini = 0.0\nsamples = 1\nvalue = [0, 1]"] ;
405 -> 406 ;
407 [label="gini = 0.0\nsamples = 1\nvalue = [1, 0]"] ;
405 -> 407 ;
408 [label="gini = 0.0\nsamples = 9\nvalue = [0, 9]"] ;
404 -> 408 ;
409 [label="X[75] <= 1697.997\ngini = 0.496\nsamples = 11\nvalue = [5, 6]"] ;
403 -> 409 ;
410 [label="X[42] <= 3953.7\ngini = 0.444\nsamples = 9\nvalue = [3, 6]"] ;
409 -> 410 ;
411 [label="gini = 0.0\nsamples = 2\nvalue = [0, 2]"] ;
410 -> 411 ;
412 [label="X[142] <= 2001.5\ngini = 0.49\nsamples = 7\nvalue = [3, 4]"] ;
410 -> 412 ;
413 [label="gini = 0.0\nsamples = 2\nvalue = [0, 2]"] ;
412 -> 413 ;
414 [label="X[34] <= 101.205\ngini = 0.48\nsamples = 5\nvalue = [3, 2]"] ;
412 -> 414 ;
415 [label="X[1] <= 0.5\ngini = 0.444\nsamples = 3\nvalue = [1, 2]"] ;
414 -> 415 ;
416 [label="gini = 0.0\nsamples = 1\nvalue = [1, 0]"] ;
415 -> 416 ;
417 [label="gini = 0.0\nsamples = 2\nvalue = [0, 2]"] ;
415 -> 417 ;
418 [label="gini = 0.0\nsamples = 2\nvalue = [2, 0]"] ;
414 -> 418 ;
419 [label="gini = 0.0\nsamples = 2\nvalue = [2, 0]"] ;
409 -> 419 ;
420 [label="gini = 0.0\nsamples = 4\nvalue = [4, 0]"] ;
402 -> 420 ;
421 [label="gini = 0.0\nsamples = 3\nvalue = [3, 0]"] ;
393 -> 421 ;
422 [label="gini = 0.0\nsamples = 3\nvalue = [3, 0]"] ;
392 -> 422 ;
423 [label="gini = 0.0\nsamples = 3\nvalue = [3, 0]"] ;
391 -> 423 ;
424 [label="X[48] <= 0.092\ngini = 0.444\nsamples = 9\nvalue = [6, 3]"] ;
106 -> 424 ;
425 [label="gini = 0.0\nsamples = 4\nvalue = [4, 0]"] ;
424 -> 425 ;
426 [label="X[2] <= 0.5\ngini = 0.48\nsamples = 5\nvalue = [2, 3]"] ;
424 -> 426 ;
427 [label="X[156] <= 2.5\ngini = 0.444\nsamples = 3\nvalue = [2, 1]"] ;
426 -> 427 ;
428 [label="gini = 0.0\nsamples = 1\nvalue = [0, 1]"] ;
427 -> 428 ;
429 [label="gini = 0.0\nsamples = 2\nvalue = [2, 0]"] ;
427 -> 429 ;
430 [label="gini = 0.0\nsamples = 2\nvalue = [0, 2]"] ;
426 -> 430 ;
431 [label="X[99] <= 5.339\ngini = 0.498\nsamples = 30\nvalue = [14, 16]"] ;
105 -> 431 ;
432 [label="X[79] <= 1.195\ngini = 0.423\nsamples = 23\nvalue = [7, 16]"] ;
431 -> 432 ;
433 [label="X[42] <= 2672.01\ngini = 0.208\nsamples = 17\nvalue = [2, 15]"] ;
432 -> 433 ;
434 [label="X[73] <= 75.967\ngini = 0.117\nsamples = 16\nvalue = [1, 15]"] ;
433 -> 434 ;
435 [label="gini = 0.0\nsamples = 14\nvalue = [0, 14]"] ;
434 -> 435 ;
436 [label="X[1] <= 0.5\ngini = 0.5\nsamples = 2\nvalue = [1, 1]"] ;
434 -> 436 ;
437 [label="gini = 0.0\nsamples = 1\nvalue = [0, 1]"] ;
436 -> 437 ;
438 [label="gini = 0.0\nsamples = 1\nvalue = [1, 0]"] ;
436 -> 438 ;
439 [label="gini = 0.0\nsamples = 1\nvalue = [1, 0]"] ;
433 -> 439 ;
440 [label="X[33] <= 18.0\ngini = 0.278\nsamples = 6\nvalue = [5, 1]"] ;
432 -> 440 ;
441 [label="gini = 0.0\nsamples = 5\nvalue = [5, 0]"] ;
440 -> 441 ;
442 [label="gini = 0.0\nsamples = 1\nvalue = [0, 1]"] ;
440 -> 442 ;
443 [label="gini = 0.0\nsamples = 7\nvalue = [7, 0]"] ;
431 -> 443 ;
444 [label="X[19] <= 12.602\ngini = 0.494\nsamples = 18\nvalue = [10, 8]"] ;
104 -> 444 ;
445 [label="gini = 0.0\nsamples = 5\nvalue = [0, 5]"] ;
444 -> 445 ;
446 [label="X[38] <= 15.795\ngini = 0.355\nsamples = 13\nvalue = [10, 3]"] ;
444 -> 446 ;
447 [label="X[117] <= 2.496\ngini = 0.18\nsamples = 10\nvalue = [9, 1]"] ;
446 -> 447 ;
448 [label="gini = 0.0\nsamples = 8\nvalue = [8, 0]"] ;
447 -> 448 ;
449 [label="X[94] <= 14.118\ngini = 0.5\nsamples = 2\nvalue = [1, 1]"] ;
447 -> 449 ;
450 [label="gini = 0.0\nsamples = 1\nvalue = [1, 0]"] ;
449 -> 450 ;
451 [label="gini = 0.0\nsamples = 1\nvalue = [0, 1]"] ;
449 -> 451 ;
452 [label="X[121] <= 0.011\ngini = 0.444\nsamples = 3\nvalue = [1, 2]"] ;
446 -> 452 ;
453 [label="gini = 0.0\nsamples = 1\nvalue = [0, 1]"] ;
452 -> 453 ;
454 [label="X[142] <= 2001.5\ngini = 0.5\nsamples = 2\nvalue = [1, 1]"] ;
452 -> 454 ;
455 [label="gini = 0.0\nsamples = 1\nvalue = [1, 0]"] ;
454 -> 455 ;
456 [label="gini = 0.0\nsamples = 1\nvalue = [0, 1]"] ;
454 -> 456 ;
457 [label="gini = 0.0\nsamples = 4\nvalue = [4, 0]"] ;
103 -> 457 ;
458 [label="X[63] <= 7590.491\ngini = 0.468\nsamples = 131\nvalue = [49, 82]"] ;
102 -> 458 ;
459 [label="X[30] <= 166.327\ngini = 0.455\nsamples = 126\nvalue = [44, 82]"] ;
458 -> 459 ;
460 [label="X[1] <= 0.5\ngini = 0.344\nsamples = 59\nvalue = [13, 46]"] ;
459 -> 460 ;
461 [label="X[139] <= 1.144\ngini = 0.451\nsamples = 32\nvalue = [11, 21]"] ;
460 -> 461 ;
462 [label="X[18] <= 1.626\ngini = 0.198\nsamples = 18\nvalue = [2, 16]"] ;
461 -> 462 ;
463 [label="gini = 0.0\nsamples = 15\nvalue = [0, 15]"] ;
462 -> 463 ;
464 [label="X[109] <= 0.716\ngini = 0.444\nsamples = 3\nvalue = [2, 1]"] ;
462 -> 464 ;
465 [label="gini = 0.0\nsamples = 2\nvalue = [2, 0]"] ;
464 -> 465 ;
466 [label="gini = 0.0\nsamples = 1\nvalue = [0, 1]"] ;
464 -> 466 ;
467 [label="X[76] <= 288.599\ngini = 0.459\nsamples = 14\nvalue = [9, 5]"] ;
461 -> 467 ;
468 [label="X[63] <= 3396.288\ngini = 0.469\nsamples = 8\nvalue = [3, 5]"] ;
467 -> 468 ;
469 [label="X[158] <= 6.5\ngini = 0.48\nsamples = 5\nvalue = [3, 2]"] ;
468 -> 469 ;
470 [label="gini = 0.0\nsamples = 2\nvalue = [2, 0]"] ;
469 -> 470 ;
471 [label="X[135] <= 0.031\ngini = 0.444\nsamples = 3\nvalue = [1, 2]"] ;
469 -> 471 ;
472 [label="gini = 0.0\nsamples = 1\nvalue = [0, 1]"] ;
471 -> 472 ;
473 [label="X[142] <= 2001.5\ngini = 0.5\nsamples = 2\nvalue = [1, 1]"] ;
471 -> 473 ;
474 [label="gini = 0.0\nsamples = 1\nvalue = [0, 1]"] ;
473 -> 474 ;
475 [label="gini = 0.0\nsamples = 1\nvalue = [1, 0]"] ;
473 -> 475 ;
476 [label="gini = 0.0\nsamples = 3\nvalue = [0, 3]"] ;
468 -> 476 ;
477 [label="gini = 0.0\nsamples = 6\nvalue = [6, 0]"] ;
467 -> 477 ;
478 [label="X[14] <= 72.315\ngini = 0.137\nsamples = 27\nvalue = [2, 25]"] ;
460 -> 478 ;
479 [label="X[93] <= 3.594\ngini = 0.074\nsamples = 26\nvalue = [1, 25]"] ;
478 -> 479 ;
480 [label="gini = 0.0\nsamples = 24\nvalue = [0, 24]"] ;
479 -> 480 ;
481 [label="X[142] <= 2001.5\ngini = 0.5\nsamples = 2\nvalue = [1, 1]"] ;
479 -> 481 ;
482 [label="gini = 0.0\nsamples = 1\nvalue = [1, 0]"] ;
481 -> 482 ;
483 [label="gini = 0.0\nsamples = 1\nvalue = [0, 1]"] ;
481 -> 483 ;
484 [label="gini = 0.0\nsamples = 1\nvalue = [1, 0]"] ;
478 -> 484 ;
485 [label="X[24] <= 0.205\ngini = 0.497\nsamples = 67\nvalue = [31, 36]"] ;
459 -> 485 ;
486 [label="X[141] <= 0.431\ngini = 0.408\nsamples = 28\nvalue = [20, 8]"] ;
485 -> 486 ;
487 [label="X[58] <= 19.411\ngini = 0.34\nsamples = 23\nvalue = [18, 5]"] ;
486 -> 487 ;
488 [label="X[77] <= 137.77\ngini = 0.444\nsamples = 3\nvalue = [1, 2]"] ;
487 -> 488 ;
489 [label="gini = 0.0\nsamples = 1\nvalue = [1, 0]"] ;
488 -> 489 ;
490 [label="gini = 0.0\nsamples = 2\nvalue = [0, 2]"] ;
488 -> 490 ;
491 [label="X[27] <= 0.591\ngini = 0.255\nsamples = 20\nvalue = [17, 3]"] ;
487 -> 491 ;
492 [label="gini = 0.0\nsamples = 11\nvalue = [11, 0]"] ;
491 -> 492 ;
493 [label="X[94] <= 35.976\ngini = 0.444\nsamples = 9\nvalue = [6, 3]"] ;
491 -> 493 ;
494 [label="gini = 0.0\nsamples = 1\nvalue = [0, 1]"] ;
493 -> 494 ;
495 [label="X[2] <= 0.5\ngini = 0.375\nsamples = 8\nvalue = [6, 2]"] ;
493 -> 495 ;
496 [label="gini = 0.0\nsamples = 4\nvalue = [4, 0]"] ;
495 -> 496 ;
497 [label="X[110] <= 0.031\ngini = 0.5\nsamples = 4\nvalue = [2, 2]"] ;
495 -> 497 ;
498 [label="gini = 0.0\nsamples = 1\nvalue = [0, 1]"] ;
497 -> 498 ;
499 [label="X[80] <= 1.14\ngini = 0.444\nsamples = 3\nvalue = [2, 1]"] ;
497 -> 499 ;
500 [label="gini = 0.0\nsamples = 1\nvalue = [1, 0]"] ;
499 -> 500 ;
501 [label="X[142] <= 2001.5\ngini = 0.5\nsamples = 2\nvalue = [1, 1]"] ;
499 -> 501 ;
502 [label="gini = 0.0\nsamples = 1\nvalue = [1, 0]"] ;
501 -> 502 ;
503 [label="gini = 0.0\nsamples = 1\nvalue = [0, 1]"] ;
501 -> 503 ;
504 [label="X[1] <= 0.5\ngini = 0.48\nsamples = 5\nvalue = [2, 3]"] ;
486 -> 504 ;
505 [label="gini = 0.0\nsamples = 2\nvalue = [0, 2]"] ;
504 -> 505 ;
506 [label="X[79] <= 1.182\ngini = 0.444\nsamples = 3\nvalue = [2, 1]"] ;
504 -> 506 ;
507 [label="X[142] <= 2001.5\ngini = 0.5\nsamples = 2\nvalue = [1, 1]"] ;
506 -> 507 ;
508 [label="gini = 0.0\nsamples = 1\nvalue = [1, 0]"] ;
507 -> 508 ;
509 [label="gini = 0.0\nsamples = 1\nvalue = [0, 1]"] ;
507 -> 509 ;
510 [label="gini = 0.0\nsamples = 1\nvalue = [1, 0]"] ;
506 -> 510 ;
511 [label="X[75] <= 87.426\ngini = 0.405\nsamples = 39\nvalue = [11, 28]"] ;
485 -> 511 ;
512 [label="X[142] <= 2001.5\ngini = 0.227\nsamples = 23\nvalue = [3, 20]"] ;
511 -> 512 ;
513 [label="X[124] <= 0.026\ngini = 0.49\nsamples = 7\nvalue = [3, 4]"] ;
512 -> 513 ;
514 [label="X[46] <= 3.375\ngini = 0.375\nsamples = 4\nvalue = [3, 1]"] ;
513 -> 514 ;
515 [label="X[1] <= 0.5\ngini = 0.5\nsamples = 2\nvalue = [1, 1]"] ;
514 -> 515 ;
516 [label="gini = 0.0\nsamples = 1\nvalue = [0, 1]"] ;
515 -> 516 ;
517 [label="gini = 0.0\nsamples = 1\nvalue = [1, 0]"] ;
515 -> 517 ;
518 [label="gini = 0.0\nsamples = 2\nvalue = [2, 0]"] ;
514 -> 518 ;
519 [label="gini = 0.0\nsamples = 3\nvalue = [0, 3]"] ;
513 -> 519 ;
520 [label="gini = 0.0\nsamples = 16\nvalue = [0, 16]"] ;
512 -> 520 ;
521 [label="X[2] <= 0.5\ngini = 0.5\nsamples = 16\nvalue = [8, 8]"] ;
511 -> 521 ;
522 [label="X[84] <= 1.11\ngini = 0.346\nsamples = 9\nvalue = [7, 2]"] ;
521 -> 522 ;
523 [label="gini = 0.0\nsamples = 5\nvalue = [5, 0]"] ;
522 -> 523 ;
524 [label="X[163] <= 5.5\ngini = 0.5\nsamples = 4\nvalue = [2, 2]"] ;
522 -> 524 ;
525 [label="X[142] <= 2001.5\ngini = 0.5\nsamples = 2\nvalue = [1, 1]"] ;
524 -> 525 ;
526 [label="gini = 0.0\nsamples = 1\nvalue = [0, 1]"] ;
525 -> 526 ;
527 [label="gini = 0.0\nsamples = 1\nvalue = [1, 0]"] ;
525 -> 527 ;
528 [label="X[142] <= 2001.5\ngini = 0.5\nsamples = 2\nvalue = [1, 1]"] ;
524 -> 528 ;
529 [label="gini = 0.0\nsamples = 1\nvalue = [1, 0]"] ;
528 -> 529 ;
530 [label="gini = 0.0\nsamples = 1\nvalue = [0, 1]"] ;
528 -> 530 ;
531 [label="X[118] <= 0.256\ngini = 0.245\nsamples = 7\nvalue = [1, 6]"] ;
521 -> 531 ;
532 [label="gini = 0.0\nsamples = 1\nvalue = [1, 0]"] ;
531 -> 532 ;
533 [label="gini = 0.0\nsamples = 6\nvalue = [0, 6]"] ;
531 -> 533 ;
534 [label="gini = 0.0\nsamples = 5\nvalue = [5, 0]"] ;
458 -> 534 ;
535 [label="X[83] <= 1.101\ngini = 0.443\nsamples = 441\nvalue = [146, 295]"] ;
101 -> 535 ;
536 [label="X[109] <= 0.193\ngini = 0.481\nsamples = 224\nvalue = [90, 134]"] ;
535 -> 536 ;
537 [label="X[83] <= 1.089\ngini = 0.498\nsamples = 91\nvalue = [48, 43]"] ;
536 -> 537 ;
538 [label="X[79] <= 1.203\ngini = 0.32\nsamples = 15\nvalue = [12, 3]"] ;
537 -> 538 ;
539 [label="X[13] <= 0.877\ngini = 0.48\nsamples = 5\nvalue = [2, 3]"] ;
538 -> 539 ;
540 [label="gini = 0.0\nsamples = 2\nvalue = [0, 2]"] ;
539 -> 540 ;
541 [label="X[100] <= 8.744\ngini = 0.444\nsamples = 3\nvalue = [2, 1]"] ;
539 -> 541 ;
542 [label="X[2] <= 0.5\ngini = 0.5\nsamples = 2\nvalue = [1, 1]"] ;
541 -> 542 ;
543 [label="gini = 0.0\nsamples = 1\nvalue = [0, 1]"] ;
542 -> 543 ;
544 [label="gini = 0.0\nsamples = 1\nvalue = [1, 0]"] ;
542 -> 544 ;
545 [label="gini = 0.0\nsamples = 1\nvalue = [1, 0]"] ;
541 -> 545 ;
546 [label="gini = 0.0\nsamples = 10\nvalue = [10, 0]"] ;
538 -> 546 ;
547 [label="X[4] <= 4.185\ngini = 0.499\nsamples = 76\nvalue = [36, 40]"] ;
537 -> 547 ;
548 [label="X[91] <= 1.145\ngini = 0.499\nsamples = 65\nvalue = [34, 31]"] ;
547 -> 548 ;
549 [label="X[118] <= 0.033\ngini = 0.497\nsamples = 54\nvalue = [25, 29]"] ;
548 -> 549 ;
550 [label="X[30] <= 15.783\ngini = 0.219\nsamples = 8\nvalue = [1, 7]"] ;
549 -> 550 ;
551 [label="gini = 0.0\nsamples = 6\nvalue = [0, 6]"] ;
550 -> 551 ;
552 [label="X[1] <= 0.5\ngini = 0.5\nsamples = 2\nvalue = [1, 1]"] ;
550 -> 552 ;
553 [label="gini = 0.0\nsamples = 1\nvalue = [1, 0]"] ;
552 -> 553 ;
554 [label="gini = 0.0\nsamples = 1\nvalue = [0, 1]"] ;
552 -> 554 ;
555 [label="X[92] <= 1.164\ngini = 0.499\nsamples = 46\nvalue = [24, 22]"] ;
549 -> 555 ;
556 [label="X[149] <= 3.5\ngini = 0.49\nsamples = 42\nvalue = [24, 18]"] ;
555 -> 556 ;
557 [label="X[2] <= 0.5\ngini = 0.465\nsamples = 38\nvalue = [24, 14]"] ;
556 -> 557 ;
558 [label="X[45] <= 225.765\ngini = 0.386\nsamples = 23\nvalue = [17, 6]"] ;
557 -> 558 ;
559 [label="X[23] <= 0.678\ngini = 0.444\nsamples = 6\nvalue = [2, 4]"] ;
558 -> 559 ;
560 [label="X[13] <= 0.54\ngini = 0.444\nsamples = 3\nvalue = [2, 1]"] ;
559 -> 560 ;
561 [label="gini = 0.0\nsamples = 1\nvalue = [1, 0]"] ;
560 -> 561 ;
562 [label="X[142] <= 2001.5\ngini = 0.5\nsamples = 2\nvalue = [1, 1]"] ;
560 -> 562 ;
563 [label="gini = 0.0\nsamples = 1\nvalue = [1, 0]"] ;
562 -> 563 ;
564 [label="gini = 0.0\nsamples = 1\nvalue = [0, 1]"] ;
562 -> 564 ;
565 [label="gini = 0.0\nsamples = 3\nvalue = [0, 3]"] ;
559 -> 565 ;
566 [label="X[15] <= 9.653\ngini = 0.208\nsamples = 17\nvalue = [15, 2]"] ;
558 -> 566 ;
567 [label="gini = 0.0\nsamples = 1\nvalue = [0, 1]"] ;
566 -> 567 ;
568 [label="X[68] <= 785.225\ngini = 0.117\nsamples = 16\nvalue = [15, 1]"] ;
566 -> 568 ;
569 [label="gini = 0.0\nsamples = 14\nvalue = [14, 0]"] ;
568 -> 569 ;
570 [label="X[142] <= 2001.5\ngini = 0.5\nsamples = 2\nvalue = [1, 1]"] ;
568 -> 570 ;
571 [label="gini = 0.0\nsamples = 1\nvalue = [0, 1]"] ;
570 -> 571 ;
572 [label="gini = 0.0\nsamples = 1\nvalue = [1, 0]"] ;
570 -> 572 ;
573 [label="X[122] <= 0.002\ngini = 0.498\nsamples = 15\nvalue = [7, 8]"] ;
557 -> 573 ;
574 [label="X[88] <= 1.094\ngini = 0.219\nsamples = 8\nvalue = [7, 1]"] ;
573 -> 574 ;
575 [label="gini = 0.0\nsamples = 1\nvalue = [0, 1]"] ;
574 -> 575 ;
576 [label="gini = 0.0\nsamples = 7\nvalue = [7, 0]"] ;
574 -> 576 ;
577 [label="gini = 0.0\nsamples = 7\nvalue = [0, 7]"] ;
573 -> 577 ;
578 [label="gini = 0.0\nsamples = 4\nvalue = [0, 4]"] ;
556 -> 578 ;
579 [label="gini = 0.0\nsamples = 4\nvalue = [0, 4]"] ;
555 -> 579 ;
580 [label="X[15] <= 28.665\ngini = 0.298\nsamples = 11\nvalue = [9, 2]"] ;
548 -> 580 ;
581 [label="X[12] <= 0.315\ngini = 0.18\nsamples = 10\nvalue = [9, 1]"] ;
580 -> 581 ;
582 [label="gini = 0.0\nsamples = 1\nvalue = [0, 1]"] ;
581 -> 582 ;
583 [label="gini = 0.0\nsamples = 9\nvalue = [9, 0]"] ;
581 -> 583 ;
584 [label="gini = 0.0\nsamples = 1\nvalue = [0, 1]"] ;
580 -> 584 ;
585 [label="X[2] <= 0.5\ngini = 0.298\nsamples = 11\nvalue = [2, 9]"] ;
547 -> 585 ;
586 [label="gini = 0.0\nsamples = 6\nvalue = [0, 6]"] ;
585 -> 586 ;
587 [label="X[143] <= 1394.5\ngini = 0.48\nsamples = 5\nvalue = [2, 3]"] ;
585 -> 587 ;
588 [label="gini = 0.0\nsamples = 3\nvalue = [0, 3]"] ;
587 -> 588 ;
589 [label="gini = 0.0\nsamples = 2\nvalue = [2, 0]"] ;
587 -> 589 ;
590 [label="X[50] <= 0.155\ngini = 0.432\nsamples = 133\nvalue = [42, 91]"] ;
536 -> 590 ;
591 [label="X[3] <= 2.925\ngini = 0.343\nsamples = 82\nvalue = [18, 64]"] ;
590 -> 591 ;
592 [label="X[137] <= 0.014\ngini = 0.32\nsamples = 80\nvalue = [16, 64]"] ;
591 -> 592 ;
593 [label="X[90] <= 1.205\ngini = 0.295\nsamples = 78\nvalue = [14, 64]"] ;
592 -> 593 ;
594 [label="X[63] <= 160.149\ngini = 0.242\nsamples = 71\nvalue = [10, 61]"] ;
593 -> 594 ;
595 [label="X[94] <= 37.632\ngini = 0.361\nsamples = 38\nvalue = [9, 29]"] ;
594 -> 595 ;
596 [label="X[89] <= 1.234\ngini = 0.49\nsamples = 7\nvalue = [4, 3]"] ;
595 -> 596 ;
597 [label="X[120] <= 0.044\ngini = 0.32\nsamples = 5\nvalue = [4, 1]"] ;
596 -> 597 ;
598 [label="gini = 0.0\nsamples = 1\nvalue = [0, 1]"] ;
597 -> 598 ;
599 [label="gini = 0.0\nsamples = 4\nvalue = [4, 0]"] ;
597 -> 599 ;
600 [label="gini = 0.0\nsamples = 2\nvalue = [0, 2]"] ;
596 -> 600 ;
601 [label="X[118] <= 2.351\ngini = 0.271\nsamples = 31\nvalue = [5, 26]"] ;
595 -> 601 ;
602 [label="X[68] <= 101.517\ngini = 0.231\nsamples = 30\nvalue = [4, 26]"] ;
601 -> 602 ;
603 [label="gini = 0.0\nsamples = 1\nvalue = [1, 0]"] ;
602 -> 603 ;
604 [label="X[77] <= 236.481\ngini = 0.185\nsamples = 29\nvalue = [3, 26]"] ;
602 -> 604 ;
605 [label="X[19] <= 10.002\ngini = 0.083\nsamples = 23\nvalue = [1, 22]"] ;
604 -> 605 ;
606 [label="X[138] <= 15.383\ngini = 0.375\nsamples = 4\nvalue = [1, 3]"] ;
605 -> 606 ;
607 [label="X[1] <= 0.5\ngini = 0.5\nsamples = 2\nvalue = [1, 1]"] ;
606 -> 607 ;
608 [label="gini = 0.0\nsamples = 1\nvalue = [0, 1]"] ;
607 -> 608 ;
609 [label="gini = 0.0\nsamples = 1\nvalue = [1, 0]"] ;
607 -> 609 ;
610 [label="gini = 0.0\nsamples = 2\nvalue = [0, 2]"] ;
606 -> 610 ;
611 [label="gini = 0.0\nsamples = 19\nvalue = [0, 19]"] ;
605 -> 611 ;
612 [label="X[1] <= 0.5\ngini = 0.444\nsamples = 6\nvalue = [2, 4]"] ;
604 -> 612 ;
613 [label="gini = 0.0\nsamples = 1\nvalue = [1, 0]"] ;
612 -> 613 ;
614 [label="X[4] <= 1.868\ngini = 0.32\nsamples = 5\nvalue = [1, 4]"] ;
612 -> 614 ;
615 [label="gini = 0.0\nsamples = 3\nvalue = [0, 3]"] ;
614 -> 615 ;
616 [label="X[142] <= 2001.5\ngini = 0.5\nsamples = 2\nvalue = [1, 1]"] ;
614 -> 616 ;
617 [label="gini = 0.0\nsamples = 1\nvalue = [0, 1]"] ;
616 -> 617 ;
618 [label="gini = 0.0\nsamples = 1\nvalue = [1, 0]"] ;
616 -> 618 ;
619 [label="gini = 0.0\nsamples = 1\nvalue = [1, 0]"] ;
601 -> 619 ;
620 [label="X[46] <= 56.295\ngini = 0.059\nsamples = 33\nvalue = [1, 32]"] ;
594 -> 620 ;
621 [label="gini = 0.0\nsamples = 30\nvalue = [0, 30]"] ;
620 -> 621 ;
622 [label="X[2] <= 0.5\ngini = 0.444\nsamples = 3\nvalue = [1, 2]"] ;
620 -> 622 ;
623 [label="X[142] <= 2001.5\ngini = 0.5\nsamples = 2\nvalue = [1, 1]"] ;
622 -> 623 ;
624 [label="gini = 0.0\nsamples = 1\nvalue = [1, 0]"] ;
623 -> 624 ;
625 [label="gini = 0.0\nsamples = 1\nvalue = [0, 1]"] ;
623 -> 625 ;
626 [label="gini = 0.0\nsamples = 1\nvalue = [0, 1]"] ;
622 -> 626 ;
627 [label="X[2] <= 0.5\ngini = 0.49\nsamples = 7\nvalue = [4, 3]"] ;
593 -> 627 ;
628 [label="X[13] <= 1.755\ngini = 0.375\nsamples = 4\nvalue = [1, 3]"] ;
627 -> 628 ;
629 [label="gini = 0.0\nsamples = 3\nvalue = [0, 3]"] ;
628 -> 629 ;
630 [label="gini = 0.0\nsamples = 1\nvalue = [1, 0]"] ;
628 -> 630 ;
631 [label="gini = 0.0\nsamples = 3\nvalue = [3, 0]"] ;
627 -> 631 ;
632 [label="gini = 0.0\nsamples = 2\nvalue = [2, 0]"] ;
592 -> 632 ;
633 [label="gini = 0.0\nsamples = 2\nvalue = [2, 0]"] ;
591 -> 633 ;
634 [label="X[50] <= 0.206\ngini = 0.498\nsamples = 51\nvalue = [24, 27]"] ;
590 -> 634 ;
635 [label="X[47] <= 319.545\ngini = 0.355\nsamples = 13\nvalue = [10, 3]"] ;
634 -> 635 ;
636 [label="X[29] <= 43.567\ngini = 0.278\nsamples = 12\nvalue = [10, 2]"] ;
635 -> 636 ;
637 [label="X[38] <= 127.35\ngini = 0.165\nsamples = 11\nvalue = [10, 1]"] ;
636 -> 637 ;
638 [label="gini = 0.0\nsamples = 9\nvalue = [9, 0]"] ;
637 -> 638 ;
639 [label="X[142] <= 2001.5\ngini = 0.5\nsamples = 2\nvalue = [1, 1]"] ;
637 -> 639 ;
640 [label="gini = 0.0\nsamples = 1\nvalue = [1, 0]"] ;
639 -> 640 ;
641 [label="gini = 0.0\nsamples = 1\nvalue = [0, 1]"] ;
639 -> 641 ;
642 [label="gini = 0.0\nsamples = 1\nvalue = [0, 1]"] ;
636 -> 642 ;
643 [label="gini = 0.0\nsamples = 1\nvalue = [0, 1]"] ;
635 -> 643 ;
644 [label="X[94] <= 43.607\ngini = 0.465\nsamples = 38\nvalue = [14, 24]"] ;
634 -> 644 ;
645 [label="X[113] <= 0.318\ngini = 0.375\nsamples = 28\nvalue = [7, 21]"] ;
644 -> 645 ;
646 [label="X[12] <= 0.518\ngini = 0.311\nsamples = 26\nvalue = [5, 21]"] ;
645 -> 646 ;
647 [label="X[142] <= 2001.5\ngini = 0.494\nsamples = 9\nvalue = [4, 5]"] ;
646 -> 647 ;
648 [label="X[58] <= 38.433\ngini = 0.444\nsamples = 6\nvalue = [4, 2]"] ;
647 -> 648 ;
649 [label="X[93] <= 3.141\ngini = 0.5\nsamples = 4\nvalue = [2, 2]"] ;
648 -> 649 ;
650 [label="X[2] <= 0.5\ngini = 0.5\nsamples = 2\nvalue = [1, 1]"] ;
649 -> 650 ;
651 [label="gini = 0.0\nsamples = 1\nvalue = [1, 0]"] ;
650 -> 651 ;
652 [label="gini = 0.0\nsamples = 1\nvalue = [0, 1]"] ;
650 -> 652 ;
653 [label="X[1] <= 0.5\ngini = 0.5\nsamples = 2\nvalue = [1, 1]"] ;
649 -> 653 ;
654 [label="gini = 0.0\nsamples = 1\nvalue = [1, 0]"] ;
653 -> 654 ;
655 [label="gini = 0.0\nsamples = 1\nvalue = [0, 1]"] ;
653 -> 655 ;
656 [label="gini = 0.0\nsamples = 2\nvalue = [2, 0]"] ;
648 -> 656 ;
657 [label="gini = 0.0\nsamples = 3\nvalue = [0, 3]"] ;
647 -> 657 ;
658 [label="X[31] <= 11.151\ngini = 0.111\nsamples = 17\nvalue = [1, 16]"] ;
646 -> 658 ;
659 [label="gini = 0.0\nsamples = 16\nvalue = [0, 16]"] ;
658 -> 659 ;
660 [label="gini = 0.0\nsamples = 1\nvalue = [1, 0]"] ;
658 -> 660 ;
661 [label="gini = 0.0\nsamples = 2\nvalue = [2, 0]"] ;
645 -> 661 ;
662 [label="X[106] <= 3.583\ngini = 0.42\nsamples = 10\nvalue = [7, 3]"] ;
644 -> 662 ;
663 [label="X[64] <= 63.541\ngini = 0.375\nsamples = 4\nvalue = [1, 3]"] ;
662 -> 663 ;
664 [label="gini = 0.0\nsamples = 1\nvalue = [1, 0]"] ;
663 -> 664 ;
665 [label="gini = 0.0\nsamples = 3\nvalue = [0, 3]"] ;
663 -> 665 ;
666 [label="gini = 0.0\nsamples = 6\nvalue = [6, 0]"] ;
662 -> 666 ;
667 [label="X[72] <= 171.585\ngini = 0.383\nsamples = 217\nvalue = [56, 161]"] ;
535 -> 667 ;
668 [label="X[74] <= 2292.211\ngini = 0.417\nsamples = 182\nvalue = [54, 128]"] ;
667 -> 668 ;
669 [label="X[4] <= 2.295\ngini = 0.398\nsamples = 175\nvalue = [48, 127]"] ;
668 -> 669 ;
670 [label="X[28] <= 4986.266\ngini = 0.45\nsamples = 126\nvalue = [43, 83]"] ;
669 -> 670 ;
671 [label="X[142] <= 2001.5\ngini = 0.401\nsamples = 101\nvalue = [28, 73]"] ;
670 -> 671 ;
672 [label="X[15] <= 17.055\ngini = 0.492\nsamples = 39\nvalue = [17, 22]"] ;
671 -> 672 ;
673 [label="X[5] <= 0.585\ngini = 0.365\nsamples = 25\nvalue = [6, 19]"] ;
672 -> 673 ;
674 [label="X[94] <= 40.202\ngini = 0.5\nsamples = 12\nvalue = [6, 6]"] ;
673 -> 674 ;
675 [label="X[143] <= 1654.5\ngini = 0.245\nsamples = 7\nvalue = [6, 1]"] ;
674 -> 675 ;
676 [label="gini = 0.0\nsamples = 5\nvalue = [5, 0]"] ;
675 -> 676 ;
677 [label="X[1] <= 0.5\ngini = 0.5\nsamples = 2\nvalue = [1, 1]"] ;
675 -> 677 ;
678 [label="gini = 0.0\nsamples = 1\nvalue = [0, 1]"] ;
677 -> 678 ;
679 [label="gini = 0.0\nsamples = 1\nvalue = [1, 0]"] ;
677 -> 679 ;
680 [label="gini = 0.0\nsamples = 5\nvalue = [0, 5]"] ;
674 -> 680 ;
681 [label="gini = 0.0\nsamples = 13\nvalue = [0, 13]"] ;
673 -> 681 ;
682 [label="X[23] <= 0.796\ngini = 0.337\nsamples = 14\nvalue = [11, 3]"] ;
672 -> 682 ;
683 [label="X[144] <= 1440.695\ngini = 0.48\nsamples = 5\nvalue = [2, 3]"] ;
682 -> 683 ;
684 [label="X[2] <= 0.5\ngini = 0.444\nsamples = 3\nvalue = [2, 1]"] ;
683 -> 684 ;
685 [label="X[59] <= 0.075\ngini = 0.5\nsamples = 2\nvalue = [1, 1]"] ;
684 -> 685 ;
686 [label="gini = 0.0\nsamples = 1\nvalue = [0, 1]"] ;
685 -> 686 ;
687 [label="gini = 0.0\nsamples = 1\nvalue = [1, 0]"] ;
685 -> 687 ;
688 [label="gini = 0.0\nsamples = 1\nvalue = [1, 0]"] ;
684 -> 688 ;
689 [label="gini = 0.0\nsamples = 2\nvalue = [0, 2]"] ;
683 -> 689 ;
690 [label="gini = 0.0\nsamples = 9\nvalue = [9, 0]"] ;
682 -> 690 ;
691 [label="X[77] <= 333.385\ngini = 0.292\nsamples = 62\nvalue = [11, 51]"] ;
671 -> 691 ;
692 [label="X[68] <= 274.594\ngini = 0.127\nsamples = 44\nvalue = [3, 41]"] ;
691 -> 692 ;
693 [label="gini = 0.0\nsamples = 34\nvalue = [0, 34]"] ;
692 -> 693 ;
694 [label="X[38] <= 37.8\ngini = 0.42\nsamples = 10\nvalue = [3, 7]"] ;
692 -> 694 ;
695 [label="gini = 0.0\nsamples = 5\nvalue = [0, 5]"] ;
694 -> 695 ;
696 [label="X[79] <= 1.187\ngini = 0.48\nsamples = 5\nvalue = [3, 2]"] ;
694 -> 696 ;
697 [label="gini = 0.0\nsamples = 2\nvalue = [2, 0]"] ;
696 -> 697 ;
698 [label="X[107] <= 6.375\ngini = 0.444\nsamples = 3\nvalue = [1, 2]"] ;
696 -> 698 ;
699 [label="X[1] <= 0.5\ngini = 0.5\nsamples = 2\nvalue = [1, 1]"] ;
698 -> 699 ;
700 [label="gini = 0.0\nsamples = 1\nvalue = [0, 1]"] ;
699 -> 700 ;
701 [label="gini = 0.0\nsamples = 1\nvalue = [1, 0]"] ;
699 -> 701 ;
702 [label="gini = 0.0\nsamples = 1\nvalue = [0, 1]"] ;
698 -> 702 ;
703 [label="X[85] <= 1.109\ngini = 0.494\nsamples = 18\nvalue = [8, 10]"] ;
691 -> 703 ;
704 [label="X[118] <= 0.78\ngini = 0.444\nsamples = 15\nvalue = [5, 10]"] ;
703 -> 704 ;
705 [label="X[140] <= 0.065\ngini = 0.355\nsamples = 13\nvalue = [3, 10]"] ;
704 -> 705 ;
706 [label="X[169] <= 1.5\ngini = 0.49\nsamples = 7\nvalue = [3, 4]"] ;
705 -> 706 ;
707 [label="X[15] <= 26.933\ngini = 0.5\nsamples = 4\nvalue = [2, 2]"] ;
706 -> 707 ;
708 [label="X[1] <= 0.5\ngini = 0.5\nsamples = 2\nvalue = [1, 1]"] ;
707 -> 708 ;
709 [label="gini = 0.0\nsamples = 1\nvalue = [1, 0]"] ;
708 -> 709 ;
710 [label="gini = 0.0\nsamples = 1\nvalue = [0, 1]"] ;
708 -> 710 ;
711 [label="X[2] <= 0.5\ngini = 0.5\nsamples = 2\nvalue = [1, 1]"] ;
707 -> 711 ;
712 [label="gini = 0.0\nsamples = 1\nvalue = [1, 0]"] ;
711 -> 712 ;
713 [label="gini = 0.0\nsamples = 1\nvalue = [0, 1]"] ;
711 -> 713 ;
714 [label="X[2] <= 0.5\ngini = 0.444\nsamples = 3\nvalue = [1, 2]"] ;
706 -> 714 ;
715 [label="gini = 0.0\nsamples = 1\nvalue = [0, 1]"] ;
714 -> 715 ;
716 [label="gini = 0.5\nsamples = 2\nvalue = [1, 1]"] ;
714 -> 716 ;
717 [label="gini = 0.0\nsamples = 6\nvalue = [0, 6]"] ;
705 -> 717 ;
718 [label="gini = 0.0\nsamples = 2\nvalue = [2, 0]"] ;
704 -> 718 ;
719 [label="gini = 0.0\nsamples = 3\nvalue = [3, 0]"] ;
703 -> 719 ;
720 [label="X[88] <= 1.137\ngini = 0.48\nsamples = 25\nvalue = [15, 10]"] ;
670 -> 720 ;
721 [label="X[90] <= 1.058\ngini = 0.245\nsamples = 14\nvalue = [12, 2]"] ;
720 -> 721 ;
722 [label="X[2] <= 0.5\ngini = 0.48\nsamples = 5\nvalue = [3, 2]"] ;
721 -> 722 ;
723 [label="gini = 0.0\nsamples = 2\nvalue = [0, 2]"] ;
722 -> 723 ;
724 [label="gini = 0.0\nsamples = 3\nvalue = [3, 0]"] ;
722 -> 724 ;
725 [label="gini = 0.0\nsamples = 9\nvalue = [9, 0]"] ;
721 -> 725 ;
726 [label="X[1] <= 0.5\ngini = 0.397\nsamples = 11\nvalue = [3, 8]"] ;
720 -> 726 ;
727 [label="gini = 0.0\nsamples = 7\nvalue = [0, 7]"] ;
726 -> 727 ;
728 [label="X[78] <= 1.048\ngini = 0.375\nsamples = 4\nvalue = [3, 1]"] ;
726 -> 728 ;
729 [label="gini = 0.0\nsamples = 3\nvalue = [3, 0]"] ;
728 -> 729 ;
730 [label="gini = 0.0\nsamples = 1\nvalue = [0, 1]"] ;
728 -> 730 ;
731 [label="X[98] <= 8.217\ngini = 0.183\nsamples = 49\nvalue = [5, 44]"] ;
669 -> 731 ;
732 [label="X[3] <= 2.025\ngini = 0.5\nsamples = 6\nvalue = [3, 3]"] ;
731 -> 732 ;
733 [label="gini = 0.0\nsamples = 3\nvalue = [3, 0]"] ;
732 -> 733 ;
734 [label="gini = 0.0\nsamples = 3\nvalue = [0, 3]"] ;
732 -> 734 ;
735 [label="X[17] <= 8.235\ngini = 0.089\nsamples = 43\nvalue = [2, 41]"] ;
731 -> 735 ;
736 [label="gini = 0.0\nsamples = 38\nvalue = [0, 38]"] ;
735 -> 736 ;
737 [label="X[38] <= 63.18\ngini = 0.48\nsamples = 5\nvalue = [2, 3]"] ;
735 -> 737 ;
738 [label="X[62] <= 0.428\ngini = 0.444\nsamples = 3\nvalue = [2, 1]"] ;
737 -> 738 ;
739 [label="X[2] <= 0.5\ngini = 0.5\nsamples = 2\nvalue = [1, 1]"] ;
738 -> 739 ;
740 [label="gini = 0.0\nsamples = 1\nvalue = [1, 0]"] ;
739 -> 740 ;
741 [label="gini = 0.0\nsamples = 1\nvalue = [0, 1]"] ;
739 -> 741 ;
742 [label="gini = 0.0\nsamples = 1\nvalue = [1, 0]"] ;
738 -> 742 ;
743 [label="gini = 0.0\nsamples = 2\nvalue = [0, 2]"] ;
737 -> 743 ;
744 [label="X[19] <= 57.933\ngini = 0.245\nsamples = 7\nvalue = [6, 1]"] ;
668 -> 744 ;
745 [label="gini = 0.0\nsamples = 6\nvalue = [6, 0]"] ;
744 -> 745 ;
746 [label="gini = 0.0\nsamples = 1\nvalue = [0, 1]"] ;
744 -> 746 ;
747 [label="X[12] <= 0.225\ngini = 0.108\nsamples = 35\nvalue = [2, 33]"] ;
667 -> 747 ;
748 [label="gini = 0.0\nsamples = 1\nvalue = [1, 0]"] ;
747 -> 748 ;
749 [label="X[8] <= 0.315\ngini = 0.057\nsamples = 34\nvalue = [1, 33]"] ;
747 -> 749 ;
750 [label="gini = 0.0\nsamples = 1\nvalue = [1, 0]"] ;
749 -> 750 ;
751 [label="gini = 0.0\nsamples = 33\nvalue = [0, 33]"] ;
749 -> 751 ;
752 [label="X[61] <= 2.062\ngini = 0.499\nsamples = 83\nvalue = [40, 43]"] ;
92 -> 752 ;
753 [label="X[58] <= 95.966\ngini = 0.492\nsamples = 71\nvalue = [40, 31]"] ;
752 -> 753 ;
754 [label="X[72] <= 177.464\ngini = 0.473\nsamples = 65\nvalue = [40, 25]"] ;
753 -> 754 ;
755 [label="X[21] <= 1.933\ngini = 0.363\nsamples = 42\nvalue = [32, 10]"] ;
754 -> 755 ;
756 [label="X[94] <= 38.783\ngini = 0.49\nsamples = 21\nvalue = [12, 9]"] ;
755 -> 756 ;
757 [label="gini = 0.0\nsamples = 4\nvalue = [4, 0]"] ;
756 -> 757 ;
758 [label="X[53] <= 0.338\ngini = 0.498\nsamples = 17\nvalue = [8, 9]"] ;
756 -> 758 ;
759 [label="X[16] <= 0.653\ngini = 0.473\nsamples = 13\nvalue = [8, 5]"] ;
758 -> 759 ;
760 [label="gini = 0.0\nsamples = 2\nvalue = [0, 2]"] ;
759 -> 760 ;
761 [label="X[1] <= 0.5\ngini = 0.397\nsamples = 11\nvalue = [8, 3]"] ;
759 -> 761 ;
762 [label="X[68] <= 745.375\ngini = 0.49\nsamples = 7\nvalue = [4, 3]"] ;
761 -> 762 ;
763 [label="gini = 0.0\nsamples = 1\nvalue = [1, 0]"] ;
762 -> 763 ;
764 [label="X[142] <= 2001.5\ngini = 0.5\nsamples = 6\nvalue = [3, 3]"] ;
762 -> 764 ;
765 [label="X[35] <= 86.49\ngini = 0.444\nsamples = 3\nvalue = [2, 1]"] ;
764 -> 765 ;
766 [label="gini = 0.0\nsamples = 2\nvalue = [2, 0]"] ;
765 -> 766 ;
767 [label="gini = 0.0\nsamples = 1\nvalue = [0, 1]"] ;
765 -> 767 ;
768 [label="X[29] <= 2.371\ngini = 0.444\nsamples = 3\nvalue = [1, 2]"] ;
764 -> 768 ;
769 [label="gini = 0.0\nsamples = 1\nvalue = [1, 0]"] ;
768 -> 769 ;
770 [label="gini = 0.0\nsamples = 2\nvalue = [0, 2]"] ;
768 -> 770 ;
771 [label="gini = 0.0\nsamples = 4\nvalue = [4, 0]"] ;
761 -> 771 ;
772 [label="gini = 0.0\nsamples = 4\nvalue = [0, 4]"] ;
758 -> 772 ;
773 [label="X[84] <= 1.115\ngini = 0.091\nsamples = 21\nvalue = [20, 1]"] ;
755 -> 773 ;
774 [label="gini = 0.0\nsamples = 19\nvalue = [19, 0]"] ;
773 -> 774 ;
775 [label="X[142] <= 2001.5\ngini = 0.5\nsamples = 2\nvalue = [1, 1]"] ;
773 -> 775 ;
776 [label="gini = 0.0\nsamples = 1\nvalue = [0, 1]"] ;
775 -> 776 ;
777 [label="gini = 0.0\nsamples = 1\nvalue = [1, 0]"] ;
775 -> 777 ;
778 [label="X[78] <= 1.098\ngini = 0.454\nsamples = 23\nvalue = [8, 15]"] ;
754 -> 778 ;
779 [label="X[142] <= 2001.5\ngini = 0.346\nsamples = 18\nvalue = [4, 14]"] ;
778 -> 779 ;
780 [label="X[102] <= 22.252\ngini = 0.48\nsamples = 5\nvalue = [3, 2]"] ;
779 -> 780 ;
781 [label="gini = 0.0\nsamples = 3\nvalue = [3, 0]"] ;
780 -> 781 ;
782 [label="gini = 0.0\nsamples = 2\nvalue = [0, 2]"] ;
780 -> 782 ;
783 [label="X[17] <= 6.143\ngini = 0.142\nsamples = 13\nvalue = [1, 12]"] ;
779 -> 783 ;
784 [label="gini = 0.0\nsamples = 12\nvalue = [0, 12]"] ;
783 -> 784 ;
785 [label="gini = 0.0\nsamples = 1\nvalue = [1, 0]"] ;
783 -> 785 ;
786 [label="X[98] <= 7.28\ngini = 0.32\nsamples = 5\nvalue = [4, 1]"] ;
778 -> 786 ;
787 [label="gini = 0.0\nsamples = 3\nvalue = [3, 0]"] ;
786 -> 787 ;
788 [label="gini = 0.5\nsamples = 2\nvalue = [1, 1]"] ;
786 -> 788 ;
789 [label="gini = 0.0\nsamples = 6\nvalue = [0, 6]"] ;
753 -> 789 ;
790 [label="gini = 0.0\nsamples = 12\nvalue = [0, 12]"] ;
752 -> 790 ;
791 [label="gini = 0.0\nsamples = 7\nvalue = [7, 0]"] ;
91 -> 791 ;
792 [label="X[117] <= 1.9\ngini = 0.454\nsamples = 5055\nvalue = [1764, 3291]"] ;
90 -> 792 ;
793 [label="X[28] <= 6.8\ngini = 0.445\nsamples = 4179\nvalue = [1397, 2782]"] ;
792 -> 793 ;
794 [label="X[1] <= 0.5\ngini = 0.478\nsamples = 66\nvalue = [40, 26]"] ;
793 -> 794 ;
795 [label="X[142] <= 2003.5\ngini = 0.355\nsamples = 39\nvalue = [30, 9]"] ;
794 -> 795 ;
796 [label="X[18] <= 1.504\ngini = 0.5\nsamples = 14\nvalue = [7, 7]"] ;
795 -> 796 ;
797 [label="X[57] <= 0.687\ngini = 0.346\nsamples = 9\nvalue = [2, 7]"] ;
796 -> 797 ;
798 [label="gini = 0.0\nsamples = 2\nvalue = [2, 0]"] ;
797 -> 798 ;
799 [label="gini = 0.0\nsamples = 7\nvalue = [0, 7]"] ;
797 -> 799 ;
800 [label="gini = 0.0\nsamples = 5\nvalue = [5, 0]"] ;
796 -> 800 ;
801 [label="X[4] <= 91.755\ngini = 0.147\nsamples = 25\nvalue = [23, 2]"] ;
795 -> 801 ;
802 [label="gini = 0.0\nsamples = 22\nvalue = [22, 0]"] ;
801 -> 802 ;
803 [label="X[85] <= 0.537\ngini = 0.444\nsamples = 3\nvalue = [1, 2]"] ;
801 -> 803 ;
804 [label="gini = 0.0\nsamples = 1\nvalue = [1, 0]"] ;
803 -> 804 ;
805 [label="gini = 0.0\nsamples = 2\nvalue = [0, 2]"] ;
803 -> 805 ;
806 [label="X[4] <= 2.43\ngini = 0.466\nsamples = 27\nvalue = [10, 17]"] ;
794 -> 806 ;
807 [label="X[72] <= 125.486\ngini = 0.444\nsamples = 12\nvalue = [8, 4]"] ;
806 -> 807 ;
808 [label="gini = 0.0\nsamples = 3\nvalue = [0, 3]"] ;
807 -> 808 ;
809 [label="X[125] <= 0.001\ngini = 0.198\nsamples = 9\nvalue = [8, 1]"] ;
807 -> 809 ;
810 [label="gini = 0.0\nsamples = 7\nvalue = [7, 0]"] ;
809 -> 810 ;
811 [label="X[107] <= 17.729\ngini = 0.5\nsamples = 2\nvalue = [1, 1]"] ;
809 -> 811 ;
812 [label="gini = 0.0\nsamples = 1\nvalue = [0, 1]"] ;
811 -> 812 ;
813 [label="gini = 0.0\nsamples = 1\nvalue = [1, 0]"] ;
811 -> 813 ;
814 [label="X[93] <= 2.775\ngini = 0.231\nsamples = 15\nvalue = [2, 13]"] ;
806 -> 814 ;
815 [label="X[48] <= 0.085\ngini = 0.133\nsamples = 14\nvalue = [1, 13]"] ;
814 -> 815 ;
816 [label="gini = 0.0\nsamples = 10\nvalue = [0, 10]"] ;
815 -> 816 ;
817 [label="X[142] <= 2004.0\ngini = 0.375\nsamples = 4\nvalue = [1, 3]"] ;
815 -> 817 ;
818 [label="gini = 0.5\nsamples = 2\nvalue = [1, 1]"] ;
817 -> 818 ;
819 [label="gini = 0.0\nsamples = 2\nvalue = [0, 2]"] ;
817 -> 819 ;
820 [label="gini = 0.0\nsamples = 1\nvalue = [1, 0]"] ;
814 -> 820 ;
821 [label="X[17] <= 3.263\ngini = 0.442\nsamples = 4113\nvalue = [1357, 2756]"] ;
793 -> 821 ;
822 [label="X[109] <= 0.442\ngini = 0.447\nsamples = 3838\nvalue = [1295, 2543]"] ;
821 -> 822 ;
823 [label="X[2] <= 0.5\ngini = 0.465\nsamples = 1869\nvalue = [689, 1180]"] ;
822 -> 823 ;
824 [label="X[143] <= 1304.0\ngini = 0.433\nsamples = 967\nvalue = [307, 660]"] ;
823 -> 824 ;
825 [label="X[25] <= 0.18\ngini = 0.489\nsamples = 179\nvalue = [103, 76]"] ;
824 -> 825 ;
826 [label="X[90] <= 1.139\ngini = 0.497\nsamples = 127\nvalue = [59, 68]"] ;
825 -> 826 ;
827 [label="X[94] <= 45.778\ngini = 0.496\nsamples = 99\nvalue = [54, 45]"] ;
826 -> 827 ;
828 [label="X[68] <= 3548.52\ngini = 0.451\nsamples = 70\nvalue = [46, 24]"] ;
827 -> 828 ;
829 [label="X[28] <= 2725.237\ngini = 0.414\nsamples = 65\nvalue = [46, 19]"] ;
828 -> 829 ;
830 [label="X[105] <= 17.295\ngini = 0.335\nsamples = 47\nvalue = [37, 10]"] ;
829 -> 830 ;
831 [label="X[90] <= 1.073\ngini = 0.17\nsamples = 32\nvalue = [29, 3]"] ;
830 -> 831 ;
832 [label="X[142] <= 2004.5\ngini = 0.42\nsamples = 10\nvalue = [7, 3]"] ;
831 -> 832 ;
833 [label="X[142] <= 2003.5\ngini = 0.5\nsamples = 6\nvalue = [3, 3]"] ;
832 -> 833 ;
834 [label="X[83] <= 1.064\ngini = 0.444\nsamples = 3\nvalue = [2, 1]"] ;
833 -> 834 ;
835 [label="gini = 0.0\nsamples = 2\nvalue = [2, 0]"] ;
834 -> 835 ;
836 [label="gini = 0.0\nsamples = 1\nvalue = [0, 1]"] ;
834 -> 836 ;
837 [label="X[60] <= 18.489\ngini = 0.444\nsamples = 3\nvalue = [1, 2]"] ;
833 -> 837 ;
838 [label="gini = 0.0\nsamples = 1\nvalue = [1, 0]"] ;
837 -> 838 ;
839 [label="gini = 0.0\nsamples = 2\nvalue = [0, 2]"] ;
837 -> 839 ;
840 [label="gini = 0.0\nsamples = 4\nvalue = [4, 0]"] ;
832 -> 840 ;
841 [label="gini = 0.0\nsamples = 22\nvalue = [22, 0]"] ;
831 -> 841 ;
842 [label="X[142] <= 2003.5\ngini = 0.498\nsamples = 15\nvalue = [8, 7]"] ;
830 -> 842 ;
843 [label="gini = 0.0\nsamples = 5\nvalue = [5, 0]"] ;
842 -> 843 ;
844 [label="X[74] <= 981.867\ngini = 0.42\nsamples = 10\nvalue = [3, 7]"] ;
842 -> 844 ;
845 [label="X[15] <= 43.11\ngini = 0.219\nsamples = 8\nvalue = [1, 7]"] ;
844 -> 845 ;
846 [label="gini = 0.0\nsamples = 7\nvalue = [0, 7]"] ;
845 -> 846 ;
847 [label="gini = 0.0\nsamples = 1\nvalue = [1, 0]"] ;
845 -> 847 ;
848 [label="gini = 0.0\nsamples = 2\nvalue = [2, 0]"] ;
844 -> 848 ;
849 [label="X[15] <= 17.662\ngini = 0.5\nsamples = 18\nvalue = [9, 9]"] ;
829 -> 849 ;
850 [label="X[28] <= 4706.571\ngini = 0.278\nsamples = 6\nvalue = [1, 5]"] ;
849 -> 850 ;
851 [label="gini = 0.0\nsamples = 5\nvalue = [0, 5]"] ;
850 -> 851 ;
852 [label="gini = 0.0\nsamples = 1\nvalue = [1, 0]"] ;
850 -> 852 ;
853 [label="X[142] <= 2004.5\ngini = 0.444\nsamples = 12\nvalue = [8, 4]"] ;
849 -> 853 ;
854 [label="X[140] <= 0.058\ngini = 0.32\nsamples = 10\nvalue = [8, 2]"] ;
853 -> 854 ;
855 [label="gini = 0.0\nsamples = 1\nvalue = [0, 1]"] ;
854 -> 855 ;
856 [label="X[118] <= 0.064\ngini = 0.198\nsamples = 9\nvalue = [8, 1]"] ;
854 -> 856 ;
857 [label="gini = 0.0\nsamples = 1\nvalue = [0, 1]"] ;
856 -> 857 ;
858 [label="gini = 0.0\nsamples = 8\nvalue = [8, 0]"] ;
856 -> 858 ;
859 [label="gini = 0.0\nsamples = 2\nvalue = [0, 2]"] ;
853 -> 859 ;
860 [label="gini = 0.0\nsamples = 5\nvalue = [0, 5]"] ;
828 -> 860 ;
861 [label="X[28] <= 95.416\ngini = 0.4\nsamples = 29\nvalue = [8, 21]"] ;
827 -> 861 ;
862 [label="X[30] <= 2362.772\ngini = 0.408\nsamples = 7\nvalue = [5, 2]"] ;
861 -> 862 ;
863 [label="gini = 0.0\nsamples = 5\nvalue = [5, 0]"] ;
862 -> 863 ;
864 [label="gini = 0.0\nsamples = 2\nvalue = [0, 2]"] ;
862 -> 864 ;
865 [label="X[69] <= 6753.059\ngini = 0.236\nsamples = 22\nvalue = [3, 19]"] ;
861 -> 865 ;
866 [label="X[45] <= 14716.575\ngini = 0.172\nsamples = 21\nvalue = [2, 19]"] ;
865 -> 866 ;
867 [label="gini = 0.0\nsamples = 15\nvalue = [0, 15]"] ;
866 -> 867 ;
868 [label="X[4] <= 1.192\ngini = 0.444\nsamples = 6\nvalue = [2, 4]"] ;
866 -> 868 ;
869 [label="gini = 0.0\nsamples = 4\nvalue = [0, 4]"] ;
868 -> 869 ;
870 [label="gini = 0.0\nsamples = 2\nvalue = [2, 0]"] ;
868 -> 870 ;
871 [label="gini = 0.0\nsamples = 1\nvalue = [1, 0]"] ;
865 -> 871 ;
872 [label="X[81] <= 1.112\ngini = 0.293\nsamples = 28\nvalue = [5, 23]"] ;
826 -> 872 ;
873 [label="X[68] <= 14588.312\ngini = 0.153\nsamples = 24\nvalue = [2, 22]"] ;
872 -> 873 ;
874 [label="X[109] <= 0.398\ngini = 0.083\nsamples = 23\nvalue = [1, 22]"] ;
873 -> 874 ;
875 [label="gini = 0.0\nsamples = 22\nvalue = [0, 22]"] ;
874 -> 875 ;
876 [label="gini = 0.0\nsamples = 1\nvalue = [1, 0]"] ;
874 -> 876 ;
877 [label="gini = 0.0\nsamples = 1\nvalue = [1, 0]"] ;
873 -> 877 ;
878 [label="X[20] <= 1.578\ngini = 0.375\nsamples = 4\nvalue = [3, 1]"] ;
872 -> 878 ;
879 [label="X[142] <= 2003.5\ngini = 0.5\nsamples = 2\nvalue = [1, 1]"] ;
878 -> 879 ;
880 [label="gini = 0.0\nsamples = 1\nvalue = [0, 1]"] ;
879 -> 880 ;
881 [label="gini = 0.0\nsamples = 1\nvalue = [1, 0]"] ;
879 -> 881 ;
882 [label="gini = 0.0\nsamples = 2\nvalue = [2, 0]"] ;
878 -> 882 ;
883 [label="X[58] <= 29.175\ngini = 0.26\nsamples = 52\nvalue = [44, 8]"] ;
825 -> 883 ;
884 [label="X[57] <= 3.973\ngini = 0.498\nsamples = 15\nvalue = [8, 7]"] ;
883 -> 884 ;
885 [label="X[79] <= 1.167\ngini = 0.397\nsamples = 11\nvalue = [8, 3]"] ;
884 -> 885 ;
886 [label="X[17] <= 0.315\ngini = 0.5\nsamples = 6\nvalue = [3, 3]"] ;
885 -> 886 ;
887 [label="gini = 0.0\nsamples = 1\nvalue = [1, 0]"] ;
886 -> 887 ;
888 [label="X[142] <= 2003.5\ngini = 0.48\nsamples = 5\nvalue = [2, 3]"] ;
886 -> 888 ;
889 [label="X[88] <= 1.106\ngini = 0.444\nsamples = 3\nvalue = [2, 1]"] ;
888 -> 889 ;
890 [label="gini = 0.0\nsamples = 1\nvalue = [0, 1]"] ;
889 -> 890 ;
891 [label="gini = 0.0\nsamples = 2\nvalue = [2, 0]"] ;
889 -> 891 ;
892 [label="gini = 0.0\nsamples = 2\nvalue = [0, 2]"] ;
888 -> 892 ;
893 [label="gini = 0.0\nsamples = 5\nvalue = [5, 0]"] ;
885 -> 893 ;
894 [label="gini = 0.0\nsamples = 4\nvalue = [0, 4]"] ;
884 -> 894 ;
895 [label="X[15] <= 38.07\ngini = 0.053\nsamples = 37\nvalue = [36, 1]"] ;
883 -> 895 ;
896 [label="gini = 0.0\nsamples = 35\nvalue = [35, 0]"] ;
895 -> 896 ;
897 [label="X[134] <= 0.006\ngini = 0.5\nsamples = 2\nvalue = [1, 1]"] ;
895 -> 897 ;
898 [label="gini = 0.0\nsamples = 1\nvalue = [1, 0]"] ;
897 -> 898 ;
899 [label="gini = 0.0\nsamples = 1\nvalue = [0, 1]"] ;
897 -> 899 ;
900 [label="X[131] <= 0.004\ngini = 0.384\nsamples = 788\nvalue = [204, 584]"] ;
824 -> 900 ;
901 [label="X[92] <= 1.131\ngini = 0.373\nsamples = 774\nvalue = [192, 582]"] ;
900 -> 901 ;
902 [label="X[109] <= 0.416\ngini = 0.427\nsamples = 483\nvalue = [149, 334]"] ;
901 -> 902 ;
903 [label="X[87] <= 1.1\ngini = 0.416\nsamples = 468\nvalue = [138, 330]"] ;
902 -> 903 ;
904 [label="X[19] <= 29.918\ngini = 0.216\nsamples = 65\nvalue = [8, 57]"] ;
903 -> 904 ;
905 [label="gini = 0.0\nsamples = 30\nvalue = [0, 30]"] ;
904 -> 905 ;
906 [label="X[94] <= 42.272\ngini = 0.353\nsamples = 35\nvalue = [8, 27]"] ;
904 -> 906 ;
907 [label="X[27] <= 0.352\ngini = 0.264\nsamples = 32\nvalue = [5, 27]"] ;
906 -> 907 ;
908 [label="X[88] <= 1.137\ngini = 0.225\nsamples = 31\nvalue = [4, 27]"] ;
907 -> 908 ;
909 [label="X[19] <= 104.484\ngini = 0.18\nsamples = 30\nvalue = [3, 27]"] ;
908 -> 909 ;
910 [label="X[140] <= 0.092\ngini = 0.128\nsamples = 29\nvalue = [2, 27]"] ;
909 -> 910 ;
911 [label="X[27] <= 0.32\ngini = 0.071\nsamples = 27\nvalue = [1, 26]"] ;
910 -> 911 ;
912 [label="gini = 0.0\nsamples = 22\nvalue = [0, 22]"] ;
911 -> 912 ;
913 [label="X[142] <= 2003.5\ngini = 0.32\nsamples = 5\nvalue = [1, 4]"] ;
911 -> 913 ;
914 [label="gini = 0.0\nsamples = 2\nvalue = [0, 2]"] ;
913 -> 914 ;
915 [label="X[138] <= 9.013\ngini = 0.444\nsamples = 3\nvalue = [1, 2]"] ;
913 -> 915 ;
916 [label="gini = 0.0\nsamples = 1\nvalue = [0, 1]"] ;
915 -> 916 ;
917 [label="X[142] <= 2004.5\ngini = 0.5\nsamples = 2\nvalue = [1, 1]"] ;
915 -> 917 ;
918 [label="gini = 0.0\nsamples = 1\nvalue = [1, 0]"] ;
917 -> 918 ;
919 [label="gini = 0.0\nsamples = 1\nvalue = [0, 1]"] ;
917 -> 919 ;
920 [label="X[142] <= 2003.5\ngini = 0.5\nsamples = 2\nvalue = [1, 1]"] ;
910 -> 920 ;
921 [label="gini = 0.0\nsamples = 1\nvalue = [0, 1]"] ;
920 -> 921 ;
922 [label="gini = 0.0\nsamples = 1\nvalue = [1, 0]"] ;
920 -> 922 ;
923 [label="gini = 0.0\nsamples = 1\nvalue = [1, 0]"] ;
909 -> 923 ;
924 [label="gini = 0.0\nsamples = 1\nvalue = [1, 0]"] ;
908 -> 924 ;
925 [label="gini = 0.0\nsamples = 1\nvalue = [1, 0]"] ;
907 -> 925 ;
926 [label="gini = 0.0\nsamples = 3\nvalue = [3, 0]"] ;
906 -> 926 ;
927 [label="X[110] <= 0.209\ngini = 0.437\nsamples = 403\nvalue = [130, 273]"] ;
903 -> 927 ;
928 [label="X[4] <= 166.545\ngini = 0.431\nsamples = 398\nvalue = [125, 273]"] ;
927 -> 928 ;
929 [label="X[60] <= 13.817\ngini = 0.426\nsamples = 394\nvalue = [121, 273]"] ;
928 -> 929 ;
930 [label="X[83] <= 1.075\ngini = 0.385\nsamples = 273\nvalue = [71, 202]"] ;
929 -> 930 ;
931 [label="X[115] <= 0.12\ngini = 0.276\nsamples = 109\nvalue = [18, 91]"] ;
930 -> 931 ;
932 [label="X[103] <= 2.158\ngini = 0.151\nsamples = 73\nvalue = [6, 67]"] ;
931 -> 932 ;
933 [label="gini = 0.0\nsamples = 2\nvalue = [2, 0]"] ;
932 -> 933 ;
934 [label="X[140] <= 0.082\ngini = 0.106\nsamples = 71\nvalue = [4, 67]"] ;
932 -> 934 ;
935 [label="X[88] <= 1.031\ngini = 0.082\nsamples = 70\nvalue = [3, 67]"] ;
934 -> 935 ;
936 [label="gini = 0.0\nsamples = 1\nvalue = [1, 0]"] ;
935 -> 936 ;
937 [label="X[15] <= 109.913\ngini = 0.056\nsamples = 69\nvalue = [2, 67]"] ;
935 -> 937 ;
938 [label="X[81] <= 1.094\ngini = 0.029\nsamples = 68\nvalue = [1, 67]"] ;
937 -> 938 ;
939 [label="gini = 0.0\nsamples = 62\nvalue = [0, 62]"] ;
938 -> 939 ;
940 [label="X[58] <= 16.586\ngini = 0.278\nsamples = 6\nvalue = [1, 5]"] ;
938 -> 940 ;
941 [label="gini = 0.0\nsamples = 5\nvalue = [0, 5]"] ;
940 -> 941 ;
942 [label="gini = 0.0\nsamples = 1\nvalue = [1, 0]"] ;
940 -> 942 ;
943 [label="gini = 0.0\nsamples = 1\nvalue = [1, 0]"] ;
937 -> 943 ;
944 [label="gini = 0.0\nsamples = 1\nvalue = [1, 0]"] ;
934 -> 944 ;
945 [label="X[47] <= 0.54\ngini = 0.444\nsamples = 36\nvalue = [12, 24]"] ;
931 -> 945 ;
946 [label="X[140] <= 0.058\ngini = 0.375\nsamples = 28\nvalue = [7, 21]"] ;
945 -> 946 ;
947 [label="gini = 0.0\nsamples = 2\nvalue = [2, 0]"] ;
946 -> 947 ;
948 [label="X[142] <= 2003.5\ngini = 0.311\nsamples = 26\nvalue = [5, 21]"] ;
946 -> 948 ;
949 [label="X[84] <= 1.126\ngini = 0.124\nsamples = 15\nvalue = [1, 14]"] ;
948 -> 949 ;
950 [label="gini = 0.0\nsamples = 13\nvalue = [0, 13]"] ;
949 -> 950 ;
951 [label="X[129] <= 0.0\ngini = 0.5\nsamples = 2\nvalue = [1, 1]"] ;
949 -> 951 ;
952 [label="gini = 0.0\nsamples = 1\nvalue = [1, 0]"] ;
951 -> 952 ;
953 [label="gini = 0.0\nsamples = 1\nvalue = [0, 1]"] ;
951 -> 953 ;
954 [label="X[87] <= 1.119\ngini = 0.463\nsamples = 11\nvalue = [4, 7]"] ;
948 -> 954 ;
955 [label="gini = 0.0\nsamples = 5\nvalue = [0, 5]"] ;
954 -> 955 ;
956 [label="X[40] <= 430.2\ngini = 0.444\nsamples = 6\nvalue = [4, 2]"] ;
954 -> 956 ;
957 [label="gini = 0.0\nsamples = 2\nvalue = [0, 2]"] ;
956 -> 957 ;
958 [label="gini = 0.0\nsamples = 4\nvalue = [4, 0]"] ;
956 -> 958 ;
959 [label="X[164] <= 4.5\ngini = 0.469\nsamples = 8\nvalue = [5, 3]"] ;
945 -> 959 ;
960 [label="gini = 0.0\nsamples = 3\nvalue = [3, 0]"] ;
959 -> 960 ;
961 [label="X[142] <= 2003.5\ngini = 0.48\nsamples = 5\nvalue = [2, 3]"] ;
959 -> 961 ;
962 [label="gini = 0.0\nsamples = 2\nvalue = [0, 2]"] ;
961 -> 962 ;
963 [label="X[140] <= 0.062\ngini = 0.444\nsamples = 3\nvalue = [2, 1]"] ;
961 -> 963 ;
964 [label="gini = 0.0\nsamples = 2\nvalue = [2, 0]"] ;
963 -> 964 ;
965 [label="gini = 0.0\nsamples = 1\nvalue = [0, 1]"] ;
963 -> 965 ;
966 [label="X[23] <= 4.89\ngini = 0.437\nsamples = 164\nvalue = [53, 111]"] ;
930 -> 966 ;
967 [label="X[162] <= 2.5\ngini = 0.458\nsamples = 149\nvalue = [53, 96]"] ;
966 -> 967 ;
968 [label="X[33] <= 8.325\ngini = 0.32\nsamples = 45\nvalue = [9, 36]"] ;
967 -> 968 ;
969 [label="X[83] <= 1.077\ngini = 0.224\nsamples = 39\nvalue = [5, 34]"] ;
968 -> 969 ;
970 [label="gini = 0.0\nsamples = 1\nvalue = [1, 0]"] ;
969 -> 970 ;
971 [label="X[4] <= 162.405\ngini = 0.188\nsamples = 38\nvalue = [4, 34]"] ;
969 -> 971 ;
972 [label="X[120] <= 0.089\ngini = 0.149\nsamples = 37\nvalue = [3, 34]"] ;
971 -> 972 ;
973 [label="X[88] <= 1.071\ngini = 0.062\nsamples = 31\nvalue = [1, 30]"] ;
972 -> 973 ;
974 [label="X[105] <= 0.545\ngini = 0.5\nsamples = 2\nvalue = [1, 1]"] ;
973 -> 974 ;
975 [label="gini = 0.0\nsamples = 1\nvalue = [0, 1]"] ;
974 -> 975 ;
976 [label="gini = 0.0\nsamples = 1\nvalue = [1, 0]"] ;
974 -> 976 ;
977 [label="gini = 0.0\nsamples = 29\nvalue = [0, 29]"] ;
973 -> 977 ;
978 [label="X[142] <= 2004.5\ngini = 0.444\nsamples = 6\nvalue = [2, 4]"] ;
972 -> 978 ;
979 [label="X[90] <= 1.114\ngini = 0.32\nsamples = 5\nvalue = [1, 4]"] ;
978 -> 979 ;
980 [label="gini = 0.0\nsamples = 3\nvalue = [0, 3]"] ;
979 -> 980 ;
981 [label="X[142] <= 2003.5\ngini = 0.5\nsamples = 2\nvalue = [1, 1]"] ;
979 -> 981 ;
982 [label="gini = 0.0\nsamples = 1\nvalue = [1, 0]"] ;
981 -> 982 ;
983 [label="gini = 0.0\nsamples = 1\nvalue = [0, 1]"] ;
981 -> 983 ;
984 [label="gini = 0.0\nsamples = 1\nvalue = [1, 0]"] ;
978 -> 984 ;
985 [label="gini = 0.0\nsamples = 1\nvalue = [1, 0]"] ;
971 -> 985 ;
986 [label="X[57] <= 4.659\ngini = 0.444\nsamples = 6\nvalue = [4, 2]"] ;
968 -> 986 ;
987 [label="X[142] <= 2004.5\ngini = 0.444\nsamples = 3\nvalue = [1, 2]"] ;
986 -> 987 ;
988 [label="gini = 0.0\nsamples = 2\nvalue = [0, 2]"] ;
987 -> 988 ;
989 [label="gini = 0.0\nsamples = 1\nvalue = [1, 0]"] ;
987 -> 989 ;
990 [label="gini = 0.0\nsamples = 3\nvalue = [3, 0]"] ;
986 -> 990 ;
991 [label="X[149] <= 3.5\ngini = 0.488\nsamples = 104\nvalue = [44, 60]"] ;
967 -> 991 ;
992 [label="X[113] <= 0.413\ngini = 0.495\nsamples = 98\nvalue = [44, 54]"] ;
991 -> 992 ;
993 [label="X[142] <= 2003.5\ngini = 0.486\nsamples = 91\nvalue = [38, 53]"] ;
992 -> 993 ;
994 [label="X[60] <= 8.578\ngini = 0.358\nsamples = 30\nvalue = [7, 23]"] ;
993 -> 994 ;
995 [label="X[25] <= 1.468\ngini = 0.293\nsamples = 28\nvalue = [5, 23]"] ;
994 -> 995 ;
996 [label="X[117] <= 1.696\ngini = 0.211\nsamples = 25\nvalue = [3, 22]"] ;
995 -> 996 ;
997 [label="X[64] <= 18908.62\ngini = 0.153\nsamples = 24\nvalue = [2, 22]"] ;
996 -> 997 ;
998 [label="X[3] <= 1.935\ngini = 0.083\nsamples = 23\nvalue = [1, 22]"] ;
997 -> 998 ;
999 [label="gini = 0.0\nsamples = 20\nvalue = [0, 20]"] ;
998 -> 999 ;
1000 [label="X[143] <= 1861.0\ngini = 0.444\nsamples = 3\nvalue = [1, 2]"] ;
998 -> 1000 ;
1001 [label="gini = 0.0\nsamples = 2\nvalue = [0, 2]"] ;
1000 -> 1001 ;
1002 [label="gini = 0.0\nsamples = 1\nvalue = [1, 0]"] ;
1000 -> 1002 ;
1003 [label="gini = 0.0\nsamples = 1\nvalue = [1, 0]"] ;
997 -> 1003 ;
1004 [label="gini = 0.0\nsamples = 1\nvalue = [1, 0]"] ;
996 -> 1004 ;
1005 [label="X[10] <= 1.012\ngini = 0.444\nsamples = 3\nvalue = [2, 1]"] ;
995 -> 1005 ;
1006 [label="gini = 0.0\nsamples = 2\nvalue = [2, 0]"] ;
1005 -> 1006 ;
1007 [label="gini = 0.0\nsamples = 1\nvalue = [0, 1]"] ;
1005 -> 1007 ;
1008 [label="gini = 0.0\nsamples = 2\nvalue = [2, 0]"] ;
994 -> 1008 ;
1009 [label="X[65] <= 92.434\ngini = 0.5\nsamples = 61\nvalue = [31, 30]"] ;
993 -> 1009 ;
1010 [label="X[70] <= 169.926\ngini = 0.487\nsamples = 50\nvalue = [29, 21]"] ;
1009 -> 1010 ;
1011 [label="X[19] <= 2.887\ngini = 0.438\nsamples = 37\nvalue = [25, 12]"] ;
1010 -> 1011 ;
1012 [label="X[3] <= 0.518\ngini = 0.499\nsamples = 21\nvalue = [11, 10]"] ;
1011 -> 1012 ;
1013 [label="X[142] <= 2004.5\ngini = 0.375\nsamples = 8\nvalue = [2, 6]"] ;
1012 -> 1013 ;
1014 [label="gini = 0.0\nsamples = 1\nvalue = [1, 0]"] ;
1013 -> 1014 ;
1015 [label="X[38] <= 27.045\ngini = 0.245\nsamples = 7\nvalue = [1, 6]"] ;
1013 -> 1015 ;
1016 [label="gini = 0.0\nsamples = 5\nvalue = [0, 5]"] ;
1015 -> 1016 ;
1017 [label="gini = 0.5\nsamples = 2\nvalue = [1, 1]"] ;
1015 -> 1017 ;
1018 [label="X[140] <= 0.057\ngini = 0.426\nsamples = 13\nvalue = [9, 4]"] ;
1012 -> 1018 ;
1019 [label="gini = 0.0\nsamples = 5\nvalue = [5, 0]"] ;
1018 -> 1019 ;
1020 [label="X[107] <= 0.636\ngini = 0.5\nsamples = 8\nvalue = [4, 4]"] ;
1018 -> 1020 ;
1021 [label="X[10] <= 0.968\ngini = 0.444\nsamples = 6\nvalue = [4, 2]"] ;
1020 -> 1021 ;
1022 [label="X[140] <= 0.059\ngini = 0.32\nsamples = 5\nvalue = [4, 1]"] ;
1021 -> 1022 ;
1023 [label="gini = 0.0\nsamples = 1\nvalue = [0, 1]"] ;
1022 -> 1023 ;
1024 [label="gini = 0.0\nsamples = 4\nvalue = [4, 0]"] ;
1022 -> 1024 ;
1025 [label="gini = 0.0\nsamples = 1\nvalue = [0, 1]"] ;
1021 -> 1025 ;
1026 [label="gini = 0.0\nsamples = 2\nvalue = [0, 2]"] ;
1020 -> 1026 ;
1027 [label="X[129] <= 0.0\ngini = 0.219\nsamples = 16\nvalue = [14, 2]"] ;
1011 -> 1027 ;
1028 [label="X[130] <= 0.005\ngini = 0.124\nsamples = 15\nvalue = [14, 1]"] ;
1027 -> 1028 ;
1029 [label="gini = 0.0\nsamples = 13\nvalue = [13, 0]"] ;
1028 -> 1029 ;
1030 [label="X[142] <= 2004.5\ngini = 0.5\nsamples = 2\nvalue = [1, 1]"] ;
1028 -> 1030 ;
1031 [label="gini = 0.0\nsamples = 1\nvalue = [0, 1]"] ;
1030 -> 1031 ;
1032 [label="gini = 0.0\nsamples = 1\nvalue = [1, 0]"] ;
1030 -> 1032 ;
1033 [label="gini = 0.0\nsamples = 1\nvalue = [0, 1]"] ;
1027 -> 1033 ;
1034 [label="X[78] <= 1.092\ngini = 0.426\nsamples = 13\nvalue = [4, 9]"] ;
1010 -> 1034 ;
1035 [label="X[124] <= 0.026\ngini = 0.298\nsamples = 11\nvalue = [2, 9]"] ;
1034 -> 1035 ;
1036 [label="gini = 0.0\nsamples = 9\nvalue = [0, 9]"] ;
1035 -> 1036 ;
1037 [label="gini = 0.0\nsamples = 2\nvalue = [2, 0]"] ;
1035 -> 1037 ;
1038 [label="gini = 0.0\nsamples = 2\nvalue = [2, 0]"] ;
1034 -> 1038 ;
1039 [label="X[144] <= 1605.485\ngini = 0.298\nsamples = 11\nvalue = [2, 9]"] ;
1009 -> 1039 ;
1040 [label="gini = 0.0\nsamples = 8\nvalue = [0, 8]"] ;
1039 -> 1040 ;
1041 [label="X[98] <= 9.11\ngini = 0.444\nsamples = 3\nvalue = [2, 1]"] ;
1039 -> 1041 ;
1042 [label="gini = 0.0\nsamples = 2\nvalue = [2, 0]"] ;
1041 -> 1042 ;
1043 [label="gini = 0.0\nsamples = 1\nvalue = [0, 1]"] ;
1041 -> 1043 ;
1044 [label="X[42] <= 157.59\ngini = 0.245\nsamples = 7\nvalue = [6, 1]"] ;
992 -> 1044 ;
1045 [label="gini = 0.0\nsamples = 6\nvalue = [6, 0]"] ;
1044 -> 1045 ;
1046 [label="gini = 0.0\nsamples = 1\nvalue = [0, 1]"] ;
1044 -> 1046 ;
1047 [label="gini = 0.0\nsamples = 6\nvalue = [0, 6]"] ;
991 -> 1047 ;
1048 [label="gini = 0.0\nsamples = 15\nvalue = [0, 15]"] ;
966 -> 1048 ;
1049 [label="X[95] <= 1.267\ngini = 0.485\nsamples = 121\nvalue = [50, 71]"] ;
929 -> 1049 ;
1050 [label="X[102] <= 36.962\ngini = 0.26\nsamples = 13\nvalue = [11, 2]"] ;
1049 -> 1050 ;
1051 [label="gini = 0.0\nsamples = 10\nvalue = [10, 0]"] ;
1050 -> 1051 ;
1052 [label="X[142] <= 2003.5\ngini = 0.444\nsamples = 3\nvalue = [1, 2]"] ;
1050 -> 1052 ;
1053 [label="gini = 0.0\nsamples = 2\nvalue = [0, 2]"] ;
1052 -> 1053 ;
1054 [label="gini = 0.0\nsamples = 1\nvalue = [1, 0]"] ;
1052 -> 1054 ;
1055 [label="X[85] <= 1.122\ngini = 0.461\nsamples = 108\nvalue = [39, 69]"] ;
1049 -> 1055 ;
1056 [label="X[138] <= 33.06\ngini = 0.442\nsamples = 103\nvalue = [34, 69]"] ;
1055 -> 1056 ;
1057 [label="X[103] <= 22.214\ngini = 0.419\nsamples = 97\nvalue = [29, 68]"] ;
1056 -> 1057 ;
1058 [label="X[140] <= 0.066\ngini = 0.481\nsamples = 67\nvalue = [27, 40]"] ;
1057 -> 1058 ;
1059 [label="X[43] <= 16848.225\ngini = 0.483\nsamples = 22\nvalue = [13, 9]"] ;
1058 -> 1059 ;
1060 [label="X[120] <= 0.087\ngini = 0.219\nsamples = 8\nvalue = [7, 1]"] ;
1059 -> 1060 ;
1061 [label="X[142] <= 2003.5\ngini = 0.5\nsamples = 2\nvalue = [1, 1]"] ;
1060 -> 1061 ;
1062 [label="gini = 0.0\nsamples = 1\nvalue = [0, 1]"] ;
1061 -> 1062 ;
1063 [label="gini = 0.0\nsamples = 1\nvalue = [1, 0]"] ;
1061 -> 1063 ;
1064 [label="gini = 0.0\nsamples = 6\nvalue = [6, 0]"] ;
1060 -> 1064 ;
1065 [label="X[45] <= 4373.685\ngini = 0.49\nsamples = 14\nvalue = [6, 8]"] ;
1059 -> 1065 ;
1066 [label="X[19] <= 24.513\ngini = 0.48\nsamples = 10\nvalue = [6, 4]"] ;
1065 -> 1066 ;
1067 [label="gini = 0.0\nsamples = 2\nvalue = [0, 2]"] ;
1066 -> 1067 ;
1068 [label="X[139] <= 1.11\ngini = 0.375\nsamples = 8\nvalue = [6, 2]"] ;
1066 -> 1068 ;
1069 [label="X[142] <= 2004.5\ngini = 0.48\nsamples = 5\nvalue = [3, 2]"] ;
1068 -> 1069 ;
1070 [label="X[95] <= 6.94\ngini = 0.5\nsamples = 4\nvalue = [2, 2]"] ;
1069 -> 1070 ;
1071 [label="gini = 0.0\nsamples = 1\nvalue = [0, 1]"] ;
1070 -> 1071 ;
1072 [label="X[103] <= 9.424\ngini = 0.444\nsamples = 3\nvalue = [2, 1]"] ;
1070 -> 1072 ;
1073 [label="gini = 0.0\nsamples = 1\nvalue = [1, 0]"] ;
1072 -> 1073 ;
1074 [label="X[142] <= 2003.5\ngini = 0.5\nsamples = 2\nvalue = [1, 1]"] ;
1072 -> 1074 ;
1075 [label="gini = 0.0\nsamples = 1\nvalue = [1, 0]"] ;
1074 -> 1075 ;
1076 [label="gini = 0.0\nsamples = 1\nvalue = [0, 1]"] ;
1074 -> 1076 ;
1077 [label="gini = 0.0\nsamples = 1\nvalue = [1, 0]"] ;
1069 -> 1077 ;
1078 [label="gini = 0.0\nsamples = 3\nvalue = [3, 0]"] ;
1068 -> 1078 ;
1079 [label="gini = 0.0\nsamples = 4\nvalue = [0, 4]"] ;
1065 -> 1079 ;
1080 [label="X[80] <= 1.12\ngini = 0.429\nsamples = 45\nvalue = [14, 31]"] ;
1058 -> 1080 ;
1081 [label="X[80] <= 1.119\ngini = 0.475\nsamples = 36\nvalue = [14, 22]"] ;
1080 -> 1081 ;
1082 [label="X[141] <= 0.34\ngini = 0.444\nsamples = 33\nvalue = [11, 22]"] ;
1081 -> 1082 ;
1083 [label="X[15] <= 16.335\ngini = 0.48\nsamples = 10\nvalue = [6, 4]"] ;
1082 -> 1083 ;
1084 [label="gini = 0.0\nsamples = 2\nvalue = [0, 2]"] ;
1083 -> 1084 ;
1085 [label="X[144] <= 1587.285\ngini = 0.375\nsamples = 8\nvalue = [6, 2]"] ;
1083 -> 1085 ;
1086 [label="gini = 0.0\nsamples = 4\nvalue = [4, 0]"] ;
1085 -> 1086 ;
1087 [label="X[142] <= 2004.5\ngini = 0.5\nsamples = 4\nvalue = [2, 2]"] ;
1085 -> 1087 ;
1088 [label="gini = 0.0\nsamples = 2\nvalue = [0, 2]"] ;
1087 -> 1088 ;
1089 [label="gini = 0.0\nsamples = 2\nvalue = [2, 0]"] ;
1087 -> 1089 ;
1090 [label="X[103] <= 21.719\ngini = 0.34\nsamples = 23\nvalue = [5, 18]"] ;
1082 -> 1090 ;
1091 [label="X[117] <= 0.009\ngini = 0.188\nsamples = 19\nvalue = [2, 17]"] ;
1090 -> 1091 ;
1092 [label="gini = 0.0\nsamples = 1\nvalue = [1, 0]"] ;
1091 -> 1092 ;
1093 [label="X[105] <= 15.463\ngini = 0.105\nsamples = 18\nvalue = [1, 17]"] ;
1091 -> 1093 ;
1094 [label="X[142] <= 2003.5\ngini = 0.444\nsamples = 3\nvalue = [1, 2]"] ;
1093 -> 1094 ;
1095 [label="gini = 0.0\nsamples = 1\nvalue = [1, 0]"] ;
1094 -> 1095 ;
1096 [label="gini = 0.0\nsamples = 2\nvalue = [0, 2]"] ;
1094 -> 1096 ;
1097 [label="gini = 0.0\nsamples = 15\nvalue = [0, 15]"] ;
1093 -> 1097 ;
1098 [label="X[94] <= 40.761\ngini = 0.375\nsamples = 4\nvalue = [3, 1]"] ;
1090 -> 1098 ;
1099 [label="gini = 0.0\nsamples = 2\nvalue = [2, 0]"] ;
1098 -> 1099 ;
1100 [label="X[142] <= 2003.5\ngini = 0.5\nsamples = 2\nvalue = [1, 1]"] ;
1098 -> 1100 ;
1101 [label="gini = 0.0\nsamples = 1\nvalue = [1, 0]"] ;
1100 -> 1101 ;
1102 [label="gini = 0.0\nsamples = 1\nvalue = [0, 1]"] ;
1100 -> 1102 ;
1103 [label="gini = 0.0\nsamples = 3\nvalue = [3, 0]"] ;
1081 -> 1103 ;
1104 [label="gini = 0.0\nsamples = 9\nvalue = [0, 9]"] ;
1080 -> 1104 ;
1105 [label="X[102] <= 37.211\ngini = 0.124\nsamples = 30\nvalue = [2, 28]"] ;
1057 -> 1105 ;
1106 [label="gini = 0.0\nsamples = 26\nvalue = [0, 26]"] ;
1105 -> 1106 ;
1107 [label="X[57] <= 21.538\ngini = 0.5\nsamples = 4\nvalue = [2, 2]"] ;
1105 -> 1107 ;
1108 [label="X[142] <= 2004.0\ngini = 0.5\nsamples = 2\nvalue = [1, 1]"] ;
1107 -> 1108 ;
1109 [label="gini = 0.0\nsamples = 1\nvalue = [0, 1]"] ;
1108 -> 1109 ;
1110 [label="gini = 0.0\nsamples = 1\nvalue = [1, 0]"] ;
1108 -> 1110 ;
1111 [label="X[142] <= 2004.0\ngini = 0.5\nsamples = 2\nvalue = [1, 1]"] ;
1107 -> 1111 ;
1112 [label="gini = 0.0\nsamples = 1\nvalue = [1, 0]"] ;
1111 -> 1112 ;
1113 [label="gini = 0.0\nsamples = 1\nvalue = [0, 1]"] ;
1111 -> 1113 ;
1114 [label="X[104] <= 30.505\ngini = 0.278\nsamples = 6\nvalue = [5, 1]"] ;
1056 -> 1114 ;
1115 [label="gini = 0.0\nsamples = 4\nvalue = [4, 0]"] ;
1114 -> 1115 ;
1116 [label="X[142] <= 2003.5\ngini = 0.5\nsamples = 2\nvalue = [1, 1]"] ;
1114 -> 1116 ;
1117 [label="gini = 0.0\nsamples = 1\nvalue = [1, 0]"] ;
1116 -> 1117 ;
1118 [label="gini = 0.0\nsamples = 1\nvalue = [0, 1]"] ;
1116 -> 1118 ;
1119 [label="gini = 0.0\nsamples = 5\nvalue = [5, 0]"] ;
1055 -> 1119 ;
1120 [label="gini = 0.0\nsamples = 4\nvalue = [4, 0]"] ;
928 -> 1120 ;
1121 [label="gini = 0.0\nsamples = 5\nvalue = [5, 0]"] ;
927 -> 1121 ;
1122 [label="X[90] <= 1.156\ngini = 0.391\nsamples = 15\nvalue = [11, 4]"] ;
902 -> 1122 ;
1123 [label="gini = 0.0\nsamples = 9\nvalue = [9, 0]"] ;
1122 -> 1123 ;
1124 [label="X[169] <= 1.5\ngini = 0.444\nsamples = 6\nvalue = [2, 4]"] ;
1122 -> 1124 ;
1125 [label="gini = 0.0\nsamples = 4\nvalue = [0, 4]"] ;
1124 -> 1125 ;
1126 [label="gini = 0.0\nsamples = 2\nvalue = [2, 0]"] ;
1124 -> 1126 ;
1127 [label="X[93] <= 2.036\ngini = 0.252\nsamples = 291\nvalue = [43, 248]"] ;
901 -> 1127 ;
1128 [label="X[92] <= 1.151\ngini = 0.392\nsamples = 101\nvalue = [27, 74]"] ;
1127 -> 1128 ;
1129 [label="X[106] <= 7.703\ngini = 0.18\nsamples = 50\nvalue = [5, 45]"] ;
1128 -> 1129 ;
1130 [label="X[99] <= 7.459\ngini = 0.117\nsamples = 48\nvalue = [3, 45]"] ;
1129 -> 1130 ;
1131 [label="X[139] <= 1.165\ngini = 0.083\nsamples = 46\nvalue = [2, 44]"] ;
1130 -> 1131 ;
1132 [label="X[68] <= 4373.396\ngini = 0.044\nsamples = 44\nvalue = [1, 43]"] ;
1131 -> 1132 ;
1133 [label="gini = 0.0\nsamples = 42\nvalue = [0, 42]"] ;
1132 -> 1133 ;
1134 [label="X[142] <= 2003.5\ngini = 0.5\nsamples = 2\nvalue = [1, 1]"] ;
1132 -> 1134 ;
1135 [label="gini = 0.0\nsamples = 1\nvalue = [1, 0]"] ;
1134 -> 1135 ;
1136 [label="gini = 0.0\nsamples = 1\nvalue = [0, 1]"] ;
1134 -> 1136 ;
1137 [label="X[142] <= 2004.5\ngini = 0.5\nsamples = 2\nvalue = [1, 1]"] ;
1131 -> 1137 ;
1138 [label="gini = 0.0\nsamples = 1\nvalue = [1, 0]"] ;
1137 -> 1138 ;
1139 [label="gini = 0.0\nsamples = 1\nvalue = [0, 1]"] ;
1137 -> 1139 ;
1140 [label="X[142] <= 2003.5\ngini = 0.5\nsamples = 2\nvalue = [1, 1]"] ;
1130 -> 1140 ;
1141 [label="gini = 0.0\nsamples = 1\nvalue = [1, 0]"] ;
1140 -> 1141 ;
1142 [label="gini = 0.0\nsamples = 1\nvalue = [0, 1]"] ;
1140 -> 1142 ;
1143 [label="gini = 0.0\nsamples = 2\nvalue = [2, 0]"] ;
1129 -> 1143 ;
1144 [label="X[70] <= 122.434\ngini = 0.491\nsamples = 51\nvalue = [22, 29]"] ;
1128 -> 1144 ;
1145 [label="X[29] <= 7.182\ngini = 0.458\nsamples = 45\nvalue = [16, 29]"] ;
1144 -> 1145 ;
1146 [label="X[83] <= 1.123\ngini = 0.427\nsamples = 42\nvalue = [13, 29]"] ;
1145 -> 1146 ;
1147 [label="X[57] <= 87.073\ngini = 0.368\nsamples = 37\nvalue = [9, 28]"] ;
1146 -> 1147 ;
1148 [label="X[118] <= 0.149\ngini = 0.32\nsamples = 35\nvalue = [7, 28]"] ;
1147 -> 1148 ;
1149 [label="X[13] <= 0.675\ngini = 0.455\nsamples = 20\nvalue = [7, 13]"] ;
1148 -> 1149 ;
1150 [label="gini = 0.0\nsamples = 2\nvalue = [2, 0]"] ;
1149 -> 1150 ;
1151 [label="X[57] <= 20.084\ngini = 0.401\nsamples = 18\nvalue = [5, 13]"] ;
1149 -> 1151 ;
1152 [label="X[140] <= 0.091\ngini = 0.36\nsamples = 17\nvalue = [4, 13]"] ;
1151 -> 1152 ;
1153 [label="X[18] <= 0.129\ngini = 0.305\nsamples = 16\nvalue = [3, 13]"] ;
1152 -> 1153 ;
1154 [label="gini = 0.0\nsamples = 7\nvalue = [0, 7]"] ;
1153 -> 1154 ;
1155 [label="X[15] <= 4.68\ngini = 0.444\nsamples = 9\nvalue = [3, 6]"] ;
1153 -> 1155 ;
1156 [label="X[80] <= 0.547\ngini = 0.49\nsamples = 7\nvalue = [3, 4]"] ;
1155 -> 1156 ;
1157 [label="X[142] <= 2003.5\ngini = 0.5\nsamples = 4\nvalue = [2, 2]"] ;
1156 -> 1157 ;
1158 [label="gini = 0.0\nsamples = 1\nvalue = [1, 0]"] ;
1157 -> 1158 ;
1159 [label="X[62] <= 3.185\ngini = 0.444\nsamples = 3\nvalue = [1, 2]"] ;
1157 -> 1159 ;
1160 [label="X[142] <= 2004.5\ngini = 0.5\nsamples = 2\nvalue = [1, 1]"] ;
1159 -> 1160 ;
1161 [label="gini = 0.0\nsamples = 1\nvalue = [0, 1]"] ;
1160 -> 1161 ;
1162 [label="gini = 0.0\nsamples = 1\nvalue = [1, 0]"] ;
1160 -> 1162 ;
1163 [label="gini = 0.0\nsamples = 1\nvalue = [0, 1]"] ;
1159 -> 1163 ;
1164 [label="X[142] <= 2003.5\ngini = 0.444\nsamples = 3\nvalue = [1, 2]"] ;
1156 -> 1164 ;
1165 [label="gini = 0.0\nsamples = 1\nvalue = [0, 1]"] ;
1164 -> 1165 ;
1166 [label="X[142] <= 2004.5\ngini = 0.5\nsamples = 2\nvalue = [1, 1]"] ;
1164 -> 1166 ;
1167 [label="gini = 0.0\nsamples = 1\nvalue = [1, 0]"] ;
1166 -> 1167 ;
1168 [label="gini = 0.0\nsamples = 1\nvalue = [0, 1]"] ;
1166 -> 1168 ;
1169 [label="gini = 0.0\nsamples = 2\nvalue = [0, 2]"] ;
1155 -> 1169 ;
1170 [label="gini = 0.0\nsamples = 1\nvalue = [1, 0]"] ;
1152 -> 1170 ;
1171 [label="gini = 0.0\nsamples = 1\nvalue = [1, 0]"] ;
1151 -> 1171 ;
1172 [label="gini = 0.0\nsamples = 15\nvalue = [0, 15]"] ;
1148 -> 1172 ;
1173 [label="gini = 0.0\nsamples = 2\nvalue = [2, 0]"] ;
1147 -> 1173 ;
1174 [label="X[140] <= 0.064\ngini = 0.32\nsamples = 5\nvalue = [4, 1]"] ;
1146 -> 1174 ;
1175 [label="gini = 0.0\nsamples = 1\nvalue = [0, 1]"] ;
1174 -> 1175 ;
1176 [label="gini = 0.0\nsamples = 4\nvalue = [4, 0]"] ;
1174 -> 1176 ;
1177 [label="gini = 0.0\nsamples = 3\nvalue = [3, 0]"] ;
1145 -> 1177 ;
1178 [label="gini = 0.0\nsamples = 6\nvalue = [6, 0]"] ;
1144 -> 1178 ;
1179 [label="X[17] <= 3.195\ngini = 0.154\nsamples = 190\nvalue = [16, 174]"] ;
1127 -> 1179 ;
1180 [label="X[90] <= 1.185\ngini = 0.138\nsamples = 188\nvalue = [14, 174]"] ;
1179 -> 1180 ;
1181 [label="X[32] <= 12.858\ngini = 0.105\nsamples = 180\nvalue = [10, 170]"] ;
1180 -> 1181 ;
1182 [label="X[4] <= 329.625\ngini = 0.06\nsamples = 161\nvalue = [5, 156]"] ;
1181 -> 1182 ;
1183 [label="X[87] <= 1.148\ngini = 0.049\nsamples = 160\nvalue = [4, 156]"] ;
1182 -> 1183 ;
1184 [label="X[22] <= 0.726\ngini = 0.037\nsamples = 159\nvalue = [3, 156]"] ;
1183 -> 1184 ;
1185 [label="X[140] <= 0.052\ngini = 0.025\nsamples = 157\nvalue = [2, 155]"] ;
1184 -> 1185 ;
1186 [label="X[142] <= 2003.5\ngini = 0.5\nsamples = 2\nvalue = [1, 1]"] ;
1185 -> 1186 ;
1187 [label="gini = 0.0\nsamples = 1\nvalue = [0, 1]"] ;
1186 -> 1187 ;
1188 [label="gini = 0.0\nsamples = 1\nvalue = [1, 0]"] ;
1186 -> 1188 ;
1189 [label="X[107] <= 20.49\ngini = 0.013\nsamples = 155\nvalue = [1, 154]"] ;
1185 -> 1189 ;
1190 [label="gini = 0.0\nsamples = 150\nvalue = [0, 150]"] ;
1189 -> 1190 ;
1191 [label="X[109] <= 0.129\ngini = 0.32\nsamples = 5\nvalue = [1, 4]"] ;
1189 -> 1191 ;
1192 [label="gini = 0.0\nsamples = 1\nvalue = [1, 0]"] ;
1191 -> 1192 ;
1193 [label="gini = 0.0\nsamples = 4\nvalue = [0, 4]"] ;
1191 -> 1193 ;
1194 [label="X[43] <= 20653.74\ngini = 0.5\nsamples = 2\nvalue = [1, 1]"] ;
1184 -> 1194 ;
1195 [label="gini = 0.0\nsamples = 1\nvalue = [0, 1]"] ;
1194 -> 1195 ;
1196 [label="gini = 0.0\nsamples = 1\nvalue = [1, 0]"] ;
1194 -> 1196 ;
1197 [label="gini = 0.0\nsamples = 1\nvalue = [1, 0]"] ;
1183 -> 1197 ;
1198 [label="gini = 0.0\nsamples = 1\nvalue = [1, 0]"] ;
1182 -> 1198 ;
1199 [label="X[103] <= 12.742\ngini = 0.388\nsamples = 19\nvalue = [5, 14]"] ;
1181 -> 1199 ;
1200 [label="X[157] <= 5.5\ngini = 0.408\nsamples = 7\nvalue = [5, 2]"] ;
1199 -> 1200 ;
1201 [label="X[40] <= 0.225\ngini = 0.278\nsamples = 6\nvalue = [5, 1]"] ;
1200 -> 1201 ;
1202 [label="X[142] <= 2003.5\ngini = 0.5\nsamples = 2\nvalue = [1, 1]"] ;
1201 -> 1202 ;
1203 [label="gini = 0.0\nsamples = 1\nvalue = [0, 1]"] ;
1202 -> 1203 ;
1204 [label="gini = 0.0\nsamples = 1\nvalue = [1, 0]"] ;
1202 -> 1204 ;
1205 [label="gini = 0.0\nsamples = 4\nvalue = [4, 0]"] ;
1201 -> 1205 ;
1206 [label="gini = 0.0\nsamples = 1\nvalue = [0, 1]"] ;
1200 -> 1206 ;
1207 [label="gini = 0.0\nsamples = 12\nvalue = [0, 12]"] ;
1199 -> 1207 ;
1208 [label="X[40] <= 2.25\ngini = 0.5\nsamples = 8\nvalue = [4, 4]"] ;
1180 -> 1208 ;
1209 [label="X[5] <= 0.81\ngini = 0.444\nsamples = 6\nvalue = [4, 2]"] ;
1208 -> 1209 ;
1210 [label="X[142] <= 2004.5\ngini = 0.5\nsamples = 4\nvalue = [2, 2]"] ;
1209 -> 1210 ;
1211 [label="gini = 0.0\nsamples = 2\nvalue = [0, 2]"] ;
1210 -> 1211 ;
1212 [label="gini = 0.0\nsamples = 2\nvalue = [2, 0]"] ;
1210 -> 1212 ;
1213 [label="gini = 0.0\nsamples = 2\nvalue = [2, 0]"] ;
1209 -> 1213 ;
1214 [label="gini = 0.0\nsamples = 2\nvalue = [0, 2]"] ;
1208 -> 1214 ;
1215 [label="gini = 0.0\nsamples = 2\nvalue = [2, 0]"] ;
1179 -> 1215 ;
1216 [label="X[69] <= 2970.951\ngini = 0.245\nsamples = 14\nvalue = [12, 2]"] ;
900 -> 1216 ;
1217 [label="gini = 0.0\nsamples = 12\nvalue = [12, 0]"] ;
1216 -> 1217 ;
1218 [label="gini = 0.0\nsamples = 2\nvalue = [0, 2]"] ;
1216 -> 1218 ;
1219 [label="X[157] <= 3.5\ngini = 0.488\nsamples = 902\nvalue = [382, 520]"] ;
823 -> 1219 ;
1220 [label="X[140] <= 0.074\ngini = 0.499\nsamples = 690\nvalue = [327, 363]"] ;
1219 -> 1220 ;
1221 [label="X[38] <= 11.565\ngini = 0.49\nsamples = 555\nvalue = [239, 316]"] ;
1220 -> 1221 ;
1222 [label="X[144] <= 1804.125\ngini = 0.462\nsamples = 320\nvalue = [116, 204]"] ;
1221 -> 1222 ;
1223 [label="X[4] <= 1.192\ngini = 0.447\nsamples = 302\nvalue = [102, 200]"] ;
1222 -> 1223 ;
1224 [label="X[100] <= 17.143\ngini = 0.291\nsamples = 85\nvalue = [15, 70]"] ;
1223 -> 1224 ;
1225 [label="X[163] <= 4.5\ngini = 0.237\nsamples = 80\nvalue = [11, 69]"] ;
1224 -> 1225 ;
1226 [label="X[27] <= 1.478\ngini = 0.484\nsamples = 17\nvalue = [7, 10]"] ;
1225 -> 1226 ;
1227 [label="gini = 0.0\nsamples = 4\nvalue = [4, 0]"] ;
1226 -> 1227 ;
1228 [label="X[4] <= 0.922\ngini = 0.355\nsamples = 13\nvalue = [3, 10]"] ;
1226 -> 1228 ;
1229 [label="X[102] <= 40.395\ngini = 0.444\nsamples = 3\nvalue = [2, 1]"] ;
1228 -> 1229 ;
1230 [label="gini = 0.0\nsamples = 2\nvalue = [2, 0]"] ;
1229 -> 1230 ;
1231 [label="gini = 0.0\nsamples = 1\nvalue = [0, 1]"] ;
1229 -> 1231 ;
1232 [label="X[142] <= 2004.5\ngini = 0.18\nsamples = 10\nvalue = [1, 9]"] ;
1228 -> 1232 ;
1233 [label="gini = 0.0\nsamples = 8\nvalue = [0, 8]"] ;
1232 -> 1233 ;
1234 [label="X[31] <= 18.264\ngini = 0.5\nsamples = 2\nvalue = [1, 1]"] ;
1232 -> 1234 ;
1235 [label="gini = 0.0\nsamples = 1\nvalue = [0, 1]"] ;
1234 -> 1235 ;
1236 [label="gini = 0.0\nsamples = 1\nvalue = [1, 0]"] ;
1234 -> 1236 ;
1237 [label="X[85] <= 1.161\ngini = 0.119\nsamples = 63\nvalue = [4, 59]"] ;
1225 -> 1237 ;
1238 [label="X[90] <= 1.091\ngini = 0.092\nsamples = 62\nvalue = [3, 59]"] ;
1237 -> 1238 ;
1239 [label="X[5] <= 0.923\ngini = 0.337\nsamples = 14\nvalue = [3, 11]"] ;
1238 -> 1239 ;
1240 [label="X[15] <= 68.243\ngini = 0.26\nsamples = 13\nvalue = [2, 11]"] ;
1239 -> 1240 ;
1241 [label="gini = 0.0\nsamples = 8\nvalue = [0, 8]"] ;
1240 -> 1241 ;
1242 [label="X[138] <= 3.872\ngini = 0.48\nsamples = 5\nvalue = [2, 3]"] ;
1240 -> 1242 ;
1243 [label="gini = 0.0\nsamples = 2\nvalue = [0, 2]"] ;
1242 -> 1243 ;
1244 [label="X[142] <= 2004.5\ngini = 0.444\nsamples = 3\nvalue = [2, 1]"] ;
1242 -> 1244 ;
1245 [label="gini = 0.0\nsamples = 2\nvalue = [2, 0]"] ;
1244 -> 1245 ;
1246 [label="gini = 0.0\nsamples = 1\nvalue = [0, 1]"] ;
1244 -> 1246 ;
1247 [label="gini = 0.0\nsamples = 1\nvalue = [1, 0]"] ;
1239 -> 1247 ;
1248 [label="gini = 0.0\nsamples = 48\nvalue = [0, 48]"] ;
1238 -> 1248 ;
1249 [label="gini = 0.0\nsamples = 1\nvalue = [1, 0]"] ;
1237 -> 1249 ;
1250 [label="X[130] <= 0.087\ngini = 0.32\nsamples = 5\nvalue = [4, 1]"] ;
1224 -> 1250 ;
1251 [label="gini = 0.0\nsamples = 4\nvalue = [4, 0]"] ;
1250 -> 1251 ;
1252 [label="gini = 0.0\nsamples = 1\nvalue = [0, 1]"] ;
1250 -> 1252 ;
1253 [label="X[19] <= 12.335\ngini = 0.48\nsamples = 217\nvalue = [87, 130]"] ;
1223 -> 1253 ;
1254 [label="X[79] <= 1.289\ngini = 0.324\nsamples = 54\nvalue = [11, 43]"] ;
1253 -> 1254 ;
1255 [label="X[132] <= 0.069\ngini = 0.188\nsamples = 38\nvalue = [4, 34]"] ;
1254 -> 1255 ;
1256 [label="X[5] <= 15.727\ngini = 0.149\nsamples = 37\nvalue = [3, 34]"] ;
1255 -> 1256 ;
